1
1 196
   0.642005    -2.27203   -0.113471  -0.0605058   -0.740437     1.14387    0.317809    -1.73547   -0.888145    0.910176    -1.09581  -0.0881493    0.348049     1.25309    -0.36225    0.146939     1.62315    -0.13622    0.304526    0.458579   -0.419952   -0.704476    0.507286    -1.86036    0.525985    0.618048   -0.614805     1.84206     0.27812     -0.8466     2.01908    -1.17107    0.109662     1.58102     1.90519   -0.306497    0.364067   0.0444311   0.0660759    0.683285    0.400894   -0.398592     1.73327    0.490785     1.26695   -0.981328   -0.293957   -0.610637    -1.97066   -0.329308    0.634865     1.04039     1.15089    -1.97653   -0.618657    -1.36588    -1.24333  -0.0338305    -1.87563    -1.00413    0.763536   -0.288004   -0.609927    0.108493  -0.0102018   -0.225527     1.64679    0.901257    -1.19416   -0.638505   -0.243563     1.73165     1.07603     1.10822    0.283841    0.644883     3.10833     1.38593  -0.0303172    -1.00673    0.734117  0.00272898   0.0451763    0.597115    0.378361    0.874378      1.1893   -0.340806    0.948059   -0.913573    -1.20288   -0.952265    0.403459     2.08561    0.296281   -0.495424    -1.49287   0.0906446   -0.706915    -1.05406   -0.472859   -0.150827    0.615243  -0.0715228   -0.791784   -0.183554   -0.837559   -0.343283     -0.7442    0.620887    -1.29925   -0.197551   -0.858611   -0.344523    0.754738   -0.144203    -0.52699   -0.565162    0.291086   -0.172833     1.63842    -2.49472    0.745309   0.0758453     1.85541   -0.137291    0.589803   -0.971327    0.304223   -0.683279     1.01585     1.67346   -0.243716   -0.786307    0.513528    0.266158    0.483281   -0.230105  -0.0143208      -1.475   -0.342143    -1.27218  -0.0478704    0.164683    -1.62514    0.393068    -2.01196   -0.106244   -0.627877 -0.00346213   -0.279708     1.38303     2.14294     1.66043    0.233288   -0.505439   -0.103661   -0.427678    0.667244   -0.234207      1.7111   -0.447251    0.311621     1.09663    0.466316    0.586182   -0.179539   -0.629262     0.10789    0.334774    -1.40952   -0.824366   -0.593478    -1.04677    0.993572    0.876032    -1.32763    -1.63562    0.106745   -0.306041     1.03072    0.808781    0.749275    0.717599  -0.0051645   -0.154046     1.05333    0.683583    -1.25511     1.45197   -0.688509   -0.602329     1.08929    -1.21379    0.518512    0.139136
784 196
  -0.0211468    -0.485202     -2.58957     -1.36137    -0.978943      0.21633    -0.685298    -0.952273    -0.796664     0.687404      1.20096  -0.00246913     0.204139    -0.139914      1.27077      1.37231    -0.263035     -1.59488     0.208185    -0.677316   -0.0369334     -1.65501     -1.64074    -0.525993     0.176655     -1.43675     0.273304  0.000413126     0.038492     0.411012     0.027614     0.105397     -1.27406      1.08963      1.23991       1.2876     -0.35237     0.496778     0.683515     0.193319     0.417025     0.907133    -0.668179    -0.487952    -0.723502    -0.803861      1.75091       0.5118     -0.45928      1.03688       1.0363      1.62634     -0.29327     -3.28723     -1.99468    -0.727484    -0.402249    -0.445741      1.43776    -0.750283     -0.54186      2.15925      0.43157    -0.898898      -1.0119     0.329422     -1.51995    -0.221333     0.412405      0.39543     0.297024       1.2696    -0.859926       1.2991     0.313863     -0.27651     0.595796   -0.0667459    0.0675626    -0.147709       0.6455      1.03174      0.14967    -0.143722    -0.509023      0.79994      1.13581     0.313558   -0.0801601    -0.832533     -0.42164     -0.12701     0.319505    -0.382932     0.460883    -0.463663    0.0839665    -0.902147     0.530378    -0.229644    -0.272788    -0.593251     -1.06523      -1.2253    0.0650012    -0.357454    -0.156037     0.826484     0.111911     -2.16734     0.739094      2.33721     0.926009      1.17392      1.06427    -0.279603      0.17987     0.935348     0.714815    -0.600443    -0.120538   0.00121529     -1.17145      1.44519      0.81813     0.724961      1.41862    -0.566113      0.61832     -0.32473    -0.126828       1.4348     0.187238    -0.261928     0.801756    -0.167573    -0.627324     0.294911    -0.512674    -0.128292     0.243485     -2.10187     -0.49769      0.65144    0.0783701     0.563845     0.157364    -0.768521     -0.17442    -0.073141     -0.45691     0.545796      1.40791     0.948507      1.50367     0.213899    -0.465744      1.46227      2.20198     -1.46319     0.288622     -0.42689      2.18338      1.35295     0.125715     -1.17587    -0.280658     0.407185     0.435695     0.757923     0.952914    -0.537186     0.121706     0.380494    -0.489957    -0.117056     0.634808      0.29544     0.345031     -0.74402    -0.380261      1.15891    -0.378404     -1.17191    -0.188857     -1.07708      0.63254     -1.50299    -0.424193    -0.724341     0.630117    -0.891755    -0.780204    -0.394635     0.549983    -0.644756
     1.74398      1.35406     0.244977    -0.908047     0.818221     0.898829     -1.08081     0.406778     0.496887    -0.628165      1.83232     0.455481    -0.213467      2.27232    -0.398418     0.475389      1.31318     -1.10548   -0.0138427     -1.19595    -0.339798     -0.94306    -0.260099    -0.254065     -0.51611     0.136033    -0.436737     0.282349      1.50877     0.433549     0.368321      0.10174      -1.8969    -0.277314      0.75282    -0.399024    -0.312963     0.485061     0.494093    -0.298307      -1.0998     0.102877      1.49603    -0.596949    -0.173729      1.13478     0.945782    -0.995764      1.13118     0.118153     -1.16878     -2.17725    0.0349624     0.194296      2.75493    -0.452886    -0.660316    -0.997296  -0.00647942     0.863308     0.891307    -0.737019    -0.265603     -1.53957     0.203142      0.12973    -0.628964     -1.14015    -0.342881    -0.674936    -0.561686     0.148115     -1.04265     0.773085      0.24591     -0.30546     0.764192     -1.18541     0.451981     -0.29148    -0.470311     0.359964      1.11551     0.490357    -0.508803      1.88782      1.79434     0.558905    0.0675864     -1.91299     0.887411    0.0216733    -0.149814     -1.22632    0.0358397     -2.73162     0.844685     0.799982      -1.7701     -1.68491     0.590222      2.23354    -0.389691   -0.0034429      1.04659    -0.855526   -0.0395817      1.73634     0.554121    -0.493687     0.403689      1.52953     -1.46346     0.716352    -0.383206     -1.13475    -0.377046       0.3253      1.15048     -1.01405      2.14683    -0.224857     0.503265     -1.29128     0.311731     -1.03088     0.504036    -0.556127     0.025363      0.38255      1.04811     -1.31819    -0.758268     0.136903      1.14658     -2.09624     -1.26656       1.2269     -1.10981      1.08214      1.45695      1.49088      0.56175      1.57206     -1.19014    -0.447257    0.0466686   -0.0274201      1.73774     0.835631     -1.49394    -0.811874    -0.541839      1.67127      1.01003    -0.913121    -0.245396      1.20234     -1.83765      1.74461    -0.359352     -1.85643     0.656995     0.590109     -1.84389     0.381791      1.37481      -2.4823      1.37647     0.561318     -1.27807   -0.0140786    -0.155097     -0.42442    -0.516938    -0.959079    -0.668212    -0.388114    -0.572711    -0.304893    -0.157931    0.0353884    -0.901892     -1.20972     0.579624    -0.455882      2.00157      1.71056     0.885724    0.0161333    0.0165037     -1.68245    -0.246698     0.347894    -0.984068      0.44493
   -0.242983     0.905869    -0.506001    -0.179236     -1.98148      1.16081     0.681255       1.1645    -0.241489      -1.3341      2.07989     0.552385    -0.743077     0.625768    -0.741938    -0.944291     0.394028   -0.0710608      1.35054     -1.00098      1.99329      1.37668    -0.138951     0.240801     0.881823     0.661932    -0.275761      1.16054     0.899777    -0.237715     -1.52822     -1.61988     0.250329   -0.0107086     0.756707    -0.509029    -0.146663      1.42557     0.865835      -1.3647      1.65897    -0.587154      1.94159     0.932575      1.32198      1.37052     -0.45966     -3.02242    -0.774847    -0.721406      1.04459      2.18131    -0.589826     0.762434   -0.0427665   -0.0325485      1.27338    -0.586153    -0.769584     -2.32651    -0.746162    -0.751764     -1.43049      1.76698     -2.13745     -1.85408      1.02442     0.376066     -1.71665     0.461802     -1.49541    -0.593874      1.18701     0.373171     0.866417    -0.701499    0.0669497      1.12233    -0.368991     0.258797     0.440005    -0.750051     -2.01442    -0.790659      0.31674     0.539065    -0.127962    -0.433529     -1.32894     0.150231    -0.266562      1.36814      1.51999     0.436988     0.308015      1.44043     0.684681     0.185107     -1.63592      2.48679    -0.823731     0.385933    -0.624967     0.819105     0.382376     0.202153     0.410336     -1.09397     -1.77915    -0.838088     0.102607    -0.319751     -1.45062      2.50157     -0.78746     -1.51179    -0.197994     0.989379   -0.0311986     0.891981    -0.331506    -0.328258     0.471609      -0.8384      1.11178     0.322244      1.41569      1.12341     0.263252    -0.283497     0.671031      1.53819     0.145135     0.829054     0.411769     0.437946   -0.0502936     -1.02723    -0.765755     0.856487     0.311944     0.866071     0.226592    -0.436562    -0.258304     0.842212      1.02786    -0.965543    -0.930948     0.235187   -0.0889204     0.882419     0.105217     0.208631    -0.259366    -0.708385     0.606568    -0.615611     -1.61945      1.05665    -0.117058    -0.581739     -0.93593    -0.399115    -0.453742    -0.289524    -0.358872    -0.279459      1.05637   -0.0970466     0.735788      0.23721     -1.05158    -0.986881    -0.115993     0.789604      1.60384      1.12552     -1.23966    -0.802705    0.0829335   0.00195705     0.748373     0.165507     -1.29678    -0.746108     0.278433     -1.78603      -1.5111     -1.28866      1.44263      1.38835    -0.453192    -0.892871  -0.00260184     -1.41571
  -0.0591193     0.849432      1.39337    -0.967324     0.535426    -0.668968      1.55365     -1.35605    -0.641621     0.797878    -0.674798  -0.00390842    -0.376959     -1.56868      1.88728     0.377532    -0.919403    -0.373602    0.0222258     -1.30545    -0.044483        1.273    -0.891238      1.14857     -2.93891     -1.97726     -2.20281      2.07539    -0.293031    0.0366047     0.189042    -0.229812      0.38642    -0.532477      0.59939    -0.460798    0.0235837    -0.236383      1.34038      1.13758    -0.437684     0.462096      0.07592    -0.186629     -1.65816     -1.37634      1.21263    -0.549148    -0.121279     0.208828     0.141626      2.38554     0.198036    -0.469746      -1.9784     0.911035    -0.398463    -0.404705      0.49515     -1.40926     -2.46723      1.03822     -0.15507     0.490818    -0.302252     0.712918    -0.387977     0.947893     0.436169     0.696908     -2.86225      1.20968    -0.565189     -1.35902    -0.349448     -0.61837    -0.798849    -0.546814    -0.436336     -0.23915      1.60799     -0.54846     -2.03604     -0.12574     -1.80806     -2.21035     0.693482     0.574092      1.73898     0.796366     -1.12367    -0.158759   0.00481216     -3.17581     0.151306      2.30305      1.24957    -0.612374    -0.946826     -2.13591      1.25125    -0.219795     0.959853     0.331702      1.00813     -1.93764      0.95253      0.57926    -0.605205     0.144871    -0.937154    -0.612515     0.753226    -0.122884      -1.3738     -1.24989    -0.983094    -0.193812     0.618779     0.467087  -0.00669885      1.35078     0.416595      1.25619    -0.154614    -0.600316    0.0655872     0.330062  -0.00241534    -0.111174     0.721446     0.524938    -0.427929     0.806314    -0.744191   -0.0439293      1.09287     0.424103    -0.997924    -0.505112    -0.155861    0.0300741    -0.334142    -0.325176    -0.491529    -0.489415     0.562445    -0.678473    -0.970237      1.21425   -0.0722616    0.0872535      1.08142     -1.90803     0.440963      1.87176    -0.812023    -0.189496     0.267841    -0.180641    -0.770048     -1.06663     0.880286     0.615646     -1.24441     0.640627     0.149755     0.146452     0.591589   0.00206022     0.629785     0.150415     0.603618      1.16815     0.712434      1.36114     -1.21836    -0.327444    -0.803168      2.66795     -2.27138    -0.765299     0.536857      2.62672    -0.239187     -1.41604     0.871987     -1.92183    -0.454156     -1.82533    -0.908416     0.927305     -0.36168     -2.22696   -0.0606932    -0.388833
    -1.73462      1.86951    -0.774969      1.06022     0.952567     -0.63343    -0.963373    -0.974143    -0.261249      -1.9143    -0.599214      2.08584    -0.179008    -0.786699     0.684896     0.360434      2.29403      1.11392     0.299798      1.00955     0.768692    -0.865874      0.26561      1.12751      -1.4674    -0.808007    -0.557544     -1.54903     0.218279    -0.311879     0.079582     0.292208    -0.297822      0.18297     -1.66288    -0.908137      1.25754     -1.13021     0.079734      1.30005    -0.932373     0.278337     0.736576    -0.665771     -1.38354    -0.412494    -0.624367     0.980197     0.619265      1.02583     -2.09145    -0.884245     -1.62941     -1.82444     -1.27237     0.301176      1.07724     0.272677    -0.762703   -0.0316752     0.324818     -1.68411       -1.658    0.0346097     -1.10606      -1.3694      2.01761     0.440962     -1.42703     0.307739     -1.64942    0.0343675    -0.915444    -0.398129     0.272735     0.088874     -1.19617      -1.1066    -0.718506      0.67586      1.48603     0.825978     0.905075     0.719456     0.194283      0.32017     0.676145    -0.273249     0.655281      1.27308      1.64844    0.0053349     -1.14423     0.644073     0.955146    -0.251853      2.31396     -1.05921    -0.291141     -2.73945    -0.188869     -1.31906     0.954079    -0.529872    -0.459563    -0.863752     0.865241     0.789084    -0.628324     -1.05976    -0.332906     0.890987      1.71727     0.264487    -0.121863     0.675941     -1.61038    -0.746983    -0.760457     0.902116     -1.73151      1.22662      1.82511     -0.12318    -0.785703    -0.359037     -1.06174      1.41961      1.59238   -0.0225099     0.457281    -0.866521     -0.62194    -0.776079     0.358671    -0.715474       2.8323     0.611095     -0.17103     -1.19528     0.481694     0.557672    -0.320054     0.291321     -1.13228    -0.142516    -0.575098     0.308785      1.32094     -2.67319     0.749035   -0.0894454   -0.0531614   -0.0157948     0.243294   -0.0632363     -1.01107      -1.2612     -1.08781     -2.17306      1.05305   -0.0507678    -0.423983     -1.47123      -1.1172     0.754697    -0.954805   -0.0451876       1.6892     -1.74016    -0.139313     -1.71496   -0.0952462    -0.833844     0.328067     -0.44143     -1.35042      1.22766    -0.105385      0.10629    -0.426906    -0.545291     0.645909    -0.666905     0.711406     0.435145    -0.757724    -0.251674   -0.0543927     0.228889     0.421161     0.568782     -0.17521    -0.213377    -0.107879   -0.0532234
    0.668926     0.565334     0.505015      1.61948     0.315769     0.501056     -1.34075    -0.253444    -0.551133     0.985393     0.262855      1.60196   -0.0156223    -0.952345    -0.999067     -0.48191     0.402825     -1.84307    -0.232226      1.92182      -1.3154      1.50334      1.34293 -0.000669535    -0.716727     0.101016     -1.01007    -0.607877     0.401671      1.86668    -0.502119    0.0746408      0.85584    -0.111517     0.550698    -0.528412     0.114237    -0.538783      1.00994    -0.254328     -1.21802     0.800907      1.65733      1.04093      0.14334     0.562035      1.43693     -1.14622     -1.02473      1.91371     -1.08757     0.797059     0.694437     0.263737      2.19997     0.566736    -0.140757     -1.35986     0.366842     -1.28643   -0.0382448    -0.201648     -1.52339     -0.18264    -0.292305      1.48737     0.322487     -0.40729      1.08345    -0.473074      1.69815     -1.42116    -0.506643    -0.138152    -0.878542      1.43298    -0.575164   -0.0939515     0.737666    -0.617434      0.15475     0.296379     0.658932     0.891914      1.36447    -0.104582      1.10756    -0.506073      1.18557     0.680266      1.92499    -0.419886    -0.738035     0.419561     0.418381     0.678307    -0.903534   -0.0266024    -0.255226     0.878621    -0.351127    -0.984262    -0.355573   -0.0398986    -0.653648     -2.22115    -0.922201     0.662435    -0.434334     0.031402      1.11678     0.334468    -0.623902     0.193263   -0.0909204     0.518744      1.21538      0.12558      0.38097    -0.844085    -0.264692   -0.0272197      1.08574     0.134967     0.514856     0.456037    -0.254008      1.19164     0.120889    -0.388423     -1.81772    -0.124035    -0.212212    -0.856738     0.568487     -1.75208      1.00674     0.359778     -0.47831    -0.177967     -1.53848    0.0837056    -0.895575    -0.450645     -1.02293     0.779534       1.3746    -0.346075    -0.666369     0.569705     -1.53949    -0.347096     -1.29635     -1.70112    -0.241331    -0.503316     0.961926     0.490462     0.977049    -0.168293    -0.245143     0.465086     0.319169     0.175778    -0.455154    -0.527225    -0.717241     0.140114     0.913885    -0.148524       1.5323      1.84297    -0.245234     -0.51612     0.276019      0.17499    -0.372923      1.67367    0.0760935    -0.570406    -0.628538     0.472535     0.784908     0.892851      1.62274      -1.2386   -0.0311516    -0.010007    -0.641071    -0.200023    -0.364184    -0.778297    -0.467537      1.13059     -2.85137      0.99149
   -0.421395    -0.587263     -0.12137      1.46641      1.73073     -2.54074     0.581109    -0.982022     0.293029    0.0244953    -0.802899      1.66837      1.41715    -0.511838     -1.01354     0.491635      1.78235       1.9776     -1.43291     -1.15446    -0.606931    -0.557896     0.906812     0.580201     0.211935      1.52449     0.759103    -0.369287    -0.894175    -0.956341      1.80384      0.41949     0.718253    -0.908556     -1.18574    -0.203845   -0.0206719    -0.567257    -0.535291    -0.767154     0.440604      1.06655    0.0290102      1.15799    -0.872866    -0.530736     -1.26605     -2.26842     0.886023    -0.128757      1.05062     -1.43622    -0.778273    0.0862583      -1.4165    -0.466279     0.827341      1.94201     0.435756     0.467322     0.172459    -0.236144     0.362893    -0.486138      2.20402      1.57981     -1.12766      0.78023      -1.6282     0.430425     0.288386      1.39571      1.65262     -1.52472     -1.78567    -0.289019    -0.246332      1.30017      1.54694     0.220387     0.821433     -1.33956      1.83886      1.08532    -0.455909     0.466383    -0.903216   -0.0315537     -1.46022     -1.54044    -0.947316        1.029    -0.122279    -0.179906     0.421274     0.436544    -0.612395     -0.19109  -0.00206817     0.855701    -0.337589      1.07799     0.572818   0.00355943     0.600026    -0.325972    -0.996082     0.581258      1.46545      3.37897      1.37266     0.122876      1.68128     -1.07459     0.424663     -1.88477      -1.7951    -0.841395    -0.390285     -1.95668     -1.15906     0.670675     0.212775     0.126826     0.919926    -0.395714     0.988345    -0.749439     0.913376     0.233773    -0.571444     0.191015     -1.25373     0.205328    -0.283911     0.182422     0.931185     -1.19715      1.91307      0.87463    -0.721982     0.334152      1.37327     0.371911    -0.914115     0.130597      -1.5308    -0.250587    0.0291819     -1.73918     -0.17359    -0.542679      1.53021    0.0492058     -2.30022      1.45758    -0.518147    -0.450676     0.742632    -0.190408    -0.734543     0.103873    -0.670305    -0.361105    0.0139613      1.71156    -0.269701     0.252171     -0.42899    -0.534924     0.223356     0.699843      1.57396     0.288881     0.632978      1.92787     0.552306     -0.49765    -0.498827    0.0889029   0.00410105    -0.357446      1.00189     0.307687      1.90943     -0.60633    -0.908355     -1.33949    -0.801264    -0.558792     0.939823     -0.37625     0.720411    -0.122603     0.425001      1.66586
    0.359402     0.726082      0.54191      1.47842    -0.984242      1.40709     0.397468     0.792258     -1.07663     0.672122    -0.653213    -0.854168       1.3157     0.465306     0.810089      0.20245     0.620892      2.20102     -1.94267     0.833418    0.0350059     0.115799     0.606163     0.660863     0.605497     0.422713    -0.483186       1.0424     0.236053     0.431681      0.72656     0.134912    -0.861078      1.21709     -1.82248    0.0994002      2.24054     -0.60746      1.06131     0.373053     -2.64706      0.53524     -1.38448     0.128512      1.42094    -0.664415    -0.853132    -0.524081     -2.52317    -0.105002     0.894398     0.251215    -0.299579      1.30898      2.76946    -0.379502     -2.39288     0.855164     -1.21121     0.836251     0.197667      1.38469     -1.08257     0.707372     0.788657    0.0483277     0.685223     0.274844      1.17197     -1.91778      1.39119     -2.38405      0.84162     -1.27111     0.035474    -0.998198     0.797937    -0.632369     0.951152     -1.07016      -1.6199    -0.463775    -0.480113     -2.02282     0.357355    -0.718182     0.783819     -0.87235      1.94662    -0.841863    -0.576354    -0.145238     0.619901     0.457018    -0.956871     -1.66945     0.303069      0.37523     0.194648    -0.366474    -0.221736     0.970869     -1.55575     -1.01678     0.838163    -0.910441    -0.647527     0.974654    -0.664874    -0.168563    -0.612131      1.70951     0.803258     0.765751     -1.64702      -1.2245     0.329615      1.95835      1.11983     0.241877     -1.65834    -0.698988     0.202811      1.99677    -0.332692   -0.0537506     -1.06884     0.982066     -1.24235     0.865761    -0.817505     -2.36654     -0.10486      1.55541     -1.11124     -0.95346    -0.128871     -1.08963    0.0785887      1.54604     0.099288      1.57253    -0.799719     -2.37273    -0.334469    -0.415873    -0.795715     0.519636    -0.303623    -0.319454    -0.707165    -0.157797     -1.30514     -1.77184    -0.118025    -0.689936     0.535426     0.365816     0.701169     0.520799     0.988116     0.114108    -0.500888     0.936808    -0.796055    -0.919148    -0.936294     0.787829    -0.270096     0.529499    -0.332636      1.37278     0.270241   -0.0309687    -0.176087   -0.0802443      1.17783    -0.749695     -2.90294     -1.23186      1.33621     -1.17828    -0.487693    -0.477107     0.579076    -0.806092      1.19212     -1.65865     0.177686     0.861163      1.28077     -0.60805      2.36059     -0.55255     -1.66977     0.500069
    -2.06965      2.66559     -2.18989    -0.106239     -1.83893    -0.227705    -0.490175      0.17835   -0.0574179    -0.650602       0.7372     0.522753     0.224821    -0.542749    -0.224276      1.81593     0.255578      1.64521    -0.244829      1.65994     0.014714     0.900651     -1.06954    0.0549264     -0.55127     0.176074     0.439861       2.0028     0.196366    -0.209699      2.51603    0.0396122     0.985085     0.569559     0.514554    -0.510007      -1.8403    -0.148708     -0.74561     -1.36542      0.97659     0.323656     -0.80652    0.0323159     -1.60884      1.63828    -0.537582     -1.09882    -0.733802     0.866497     0.141496    -0.146151      2.78185     0.342131     0.883185    -0.757844     0.317507     0.351812      3.37029    -0.872263     -1.57516    0.0227792     -1.46785     0.962607    -0.698155      2.47428     0.227823    -0.814172    -0.331612     -1.53259    -0.789685      1.35913    -0.109594     -0.19162     -1.35837      0.18761     -0.90852     0.232746    0.0435491      0.79149      1.17906    -0.966485     -1.03857    -0.572368      1.10433      1.54227    0.0224701     -2.42535     -1.89714     -1.26074     -1.00101    -0.502061     0.958624     0.913771     -1.00676      2.33879    -0.395689    -0.485916     0.172703    -0.430101      2.55923    0.0968654    -0.152403    -0.606243      1.44681      0.90038      1.88473     0.346694     0.607272     0.531621    -0.260919     -1.61896    -0.862029     -1.84819    -0.458945     -0.64617    -0.427001     0.814525    -0.369283     -1.50564     0.963623    -0.288762      1.07016     0.518489    -0.914598    -0.345398     -2.02914      0.64913      -1.5514     -0.49921      1.57091    -0.230919     0.807259     -1.12074      1.16556     0.330158      2.04917    -0.678095    -0.644863      0.91852    0.0268933     0.537794      -1.1296     0.744563     -1.96204     0.492699     -1.74036      1.36465   0.00144814    -0.589559    -0.298933      2.24861     0.824377     -1.16446    -0.557616     -1.09112     -1.02544      1.65799      1.23232     -0.80606      1.54371     -0.31887    -0.333809        -1.62    -0.155936     0.790413     0.213631    -0.348852       1.1172      2.46776     -0.28799    -0.677045      1.07091     0.806257    -0.115505     0.158384    -0.405475     -1.31455     0.326066       1.3191      1.97679     -1.64693      1.11313       0.7374     -1.10297     0.487788     -1.81602     -1.21599      0.18492     0.529249     -2.67895     -1.12413      1.43595    -0.684188     0.457523    -0.808633
    0.413215    -0.529194     -1.05303    -0.416235    -0.487866     0.252288       -0.492     -1.33078     0.770302      1.09832     0.713344      1.35588     -1.65518     -1.59319     0.807369     0.648867     0.401679    -0.897233    -0.415407    -0.395655     0.902339    -0.231301      1.08559      1.59752    -0.227741      1.68337     -1.55758     0.355995      2.21365     0.406481      2.26862     0.443473      1.20049     -1.66934     0.742121     0.119381      -0.9849      1.42194     0.439867      -1.8391     0.881858      2.05801     -1.42476    -0.991829     -1.15893    -0.574746    -0.220356      0.19648     0.526516     0.263364      1.83365    -0.230566    -0.966213    -0.976123     0.994998     0.826648      0.83803     -1.13909     -1.68054     0.389157      1.09824      1.64722    -0.238091     0.418047    -0.752893    0.0468712       1.9033      1.30995     0.214126       1.1747     0.122524     0.515547     0.429995    -0.704755      1.52727     0.698274    -0.318576    0.0090704    -0.397521      1.75078     -2.02394    -0.723387    -0.197385    0.0871984      2.69936     -2.03172    -0.633315    -0.520638     0.988656     -1.69629     -0.94933    -0.121294     -1.23103    -0.301572     -1.14426    -0.171186     0.369511     -1.81834   -0.0366447    -0.311353     0.927522      0.99708    -0.911082     0.314563    -0.617555     0.490053     0.629711     -1.80019     -1.38378    -0.532807      -1.0489    -0.462869     -1.11455       2.2521    -0.848952    -0.275417      0.12122    -0.351296      0.23945     -1.74192     -1.75037     0.193177     -2.02368     -1.62039     0.699023    -0.180084    -0.514996      1.68213     0.412672   -0.0442287     0.543752     -1.35436     -1.20107     -1.27996    -0.228725      1.52649     0.857083     -1.18966     0.413554     0.503604     0.644907      1.86272    -0.778453     -2.95144     -1.06538     0.563893     -1.63838    -0.484595     -1.05075     -1.11527    0.0273682     -1.21411   -0.0136908      2.33484     0.338376     0.809719     -1.35876      1.93434     0.271274     0.470993    -0.984772    -0.792022      0.67332    -0.436877    -0.930606   -0.0642919    0.0529218    -0.078107    -0.334142     -1.54308      1.13022      1.32007    -0.229795     -2.48918     -0.94452       1.4071    -0.234943     -1.30767      3.03485     -1.57357     -1.34195     0.229835     -1.35601     0.368555    -0.611202     0.943983     0.854144   0.00217632     -1.04627     0.821937    -0.294552    -0.915034    0.0869513    -0.494664     -2.55635    -0.806807
   -0.769408     -1.72487      0.99498      1.53077    -0.774659     -1.12712     -1.74446   -0.0770815     -1.00128    -0.606045    -0.153952     0.462572     0.824885     0.311123     -1.01175     0.230323    0.0383712      0.21711    -0.334809    -0.229907     -1.85281     -1.14657     -1.30889  -0.00773885    -0.601611    -0.743455      1.23529     0.514206       1.1383     0.602165     0.826778  -0.00124615     0.717566     -0.66855    -0.389768      1.51649     -0.78367     0.678166    -0.115275      1.95166    -0.325768    0.0170079     -1.47786     0.531874     -0.93975     -1.05209      0.27994     -1.88638     0.168422      -1.3635    -0.774975      1.73539     0.380812     0.356912     -2.56717    -0.122142      1.00077     -1.07585    -0.488705    -0.116321     -1.67136    -0.501373     0.528299     0.609664    -0.158834      1.34151     0.377522      1.13446     -1.14098    -0.670416      2.86981      -1.0051     -2.11725     0.141541     0.273358     -1.11518      1.64127     0.900157     0.593139    -0.636745     0.424586     -1.95531     0.718749     0.618842    -0.154188     -1.12669    -0.493839     0.106781    -0.832286     0.111746    -0.899543    -0.903478      1.59609  -0.00115321      1.57431    -0.382612    -0.405912    -0.148349     0.194181      -1.4226      1.07669     0.748387     -0.13331    -0.287073     0.133377   -0.0604505    -0.633089     -1.04329      1.85375      1.23388    -0.943169     -2.17813     0.165692      1.83758      1.12258     0.894423  -0.00258385    0.0790172    -0.447942     -1.08445    -0.259958    -0.531483     0.353118     0.969001     0.232383      1.04494    -0.625714     -1.14818     0.634021      1.39621     0.852021     -1.80859    -0.813063       1.0197     -2.15379      1.41879     -1.17518      1.26797    -0.637032    0.0228268    -0.799029      1.14211    -0.474986     -1.51302     0.666899     -1.66819     -1.19998    -0.431607    -0.440535     -0.44895     0.123162     -1.07665      1.29082      1.67929      1.61547    -0.532158     0.209245     -1.60076      1.82768    -0.558488      0.38098   -0.0585788      1.19223     0.289203    -0.136763    -0.904186     -1.62632     0.261106    -0.896427    -0.299989      1.15415     -1.16048     -1.29967    -0.797809    -0.354598    -0.479033     -2.29398    -0.257316     0.836743    -0.638018        1.884    0.0829451     0.364383     -1.81395     -2.36393     -2.07008    -0.123992     0.823563    -0.601675      2.84792     0.217999     0.710242     -1.23626    -0.643995     0.122849      -1.5062
    -0.78976     0.587883      1.15594   -0.0701371     -1.07094      1.02202      0.94161    0.0121026      1.62559    -0.257099     0.298576     -1.38144     0.780268    0.0311802     0.226813    -0.107873     -1.01513     -1.35527     0.577577    -0.966403     -1.04697    -0.440485     0.892914     0.109942     0.644598       1.3405     0.575659   -0.0313691    -0.219864     0.514906     0.645264     0.328263     0.249352      -0.8376     0.366335      1.72523     0.449234      1.97108     -1.49805      1.07247     0.471908    -0.534761     -1.27702    -0.362931     0.484228      1.91645   0.00670859      1.94029    -0.317598    -0.263572    -0.613168    -0.569607      1.34478      2.37393    -0.259965   -0.0326708     0.601074    -0.622256    -0.594259     -1.33085     0.267328    0.0310841    -0.749901     0.385766      1.25701      1.05844     -1.11772     -2.18877      2.42048    -0.176506    -0.399114    -0.403717    -0.543442     -0.50622     0.920707     0.698723     0.202575   -0.0658143     -1.53973    -0.245075    -0.501877    -0.929294    -0.777423      1.22465      1.56951    -0.723925    -0.568957    -0.414936    -0.363851     -1.07057      0.44311    -0.249026     -1.43931    -0.738572    -0.551526    -0.382405   -0.0834971    -0.409752       -1.595     0.553036     0.701676    -0.203464     -1.40693    -0.163192     -1.18848     0.951587     -2.16361     0.122294   -0.0348302     0.727185     0.606124      1.47131     0.364284    -0.351258    -0.407416    -0.729217     -1.29569      -2.7284     -1.43451    -0.371994     -0.57898      1.83971     -2.36328    -0.135585    -0.577598     -1.09612      2.03039     0.376526      -1.4747     0.651254     0.101502     0.561286     0.123763      1.11169     -0.96816     0.298951      1.49474   -0.0344767     0.873531    -0.408188    -0.762009     0.364735    -0.476008    0.0756846     0.846678        1.875     0.222324    -0.596532    -0.591885     -2.10112    0.0853367     0.346743     0.151993     0.891899     -1.00357    -0.530724     -2.12352    -0.118573     -1.51725      1.12768     0.724993      1.53783      2.08001   -0.0801622      3.33764      1.34378    0.0359582      1.11509      0.63582    -0.317669    -0.607683      1.80192    -0.032237      1.10661     0.380283      1.11921     0.573551    0.0116517      2.51686     0.638895    -0.579431      -1.0797    -0.795901     0.438153     0.479694     -2.26414    -0.549084    -0.510909      1.49228    -0.996739   -0.0453112    -0.269422      2.33574     0.714647      1.23135     0.928493
      1.2369       1.7004      1.18456       1.8054    -0.881072     0.564018    0.0826001      1.61155    -0.205555     0.565675     0.499623       2.3823     0.459027      -1.2124    -0.209918     -0.28536     0.911052    -0.535175     0.879111     0.653557      -1.0218     0.746502     -0.11071     -0.62999    -0.450798     0.518159     -0.15072       -2.163     -0.93193    -0.867513      1.74811     -1.71756     -0.20904     0.548438     0.176205     -1.06021     0.308749   -0.0528707      -1.2034      1.55026     0.100584    -0.902263     0.278641     0.379014     0.343855    -0.576895    -0.266266     0.868795  0.000691848      0.72959      1.16578   0.00150271    0.0572632     0.303235     0.269834     0.606642   -0.0720617    -0.500105     0.616131    -0.500832    -0.239121     0.533039    -0.152558    -0.794711     -1.51899     0.779254     0.539156    -0.381489    -0.397315    -0.769921      2.12686     -2.25175    -0.095495     0.360772    -0.287492       1.6301     0.477041    -0.976603     0.519913     -2.08381     -0.85974     0.640063     0.345819    -0.649168    -0.250125    -0.964535      1.08989    -0.764819     0.420427     0.881527     -1.17313     0.833675      2.53935     0.660066      1.67912     -1.45889     0.386654     0.307226     0.126028    0.0235738   -0.0799227     0.791761    -0.127924     -1.70033   -0.0798683      1.19103      -1.8161    -0.690964    -0.565267     -1.90031     -1.17001    -0.581636     -1.32985     0.050342    0.0204091    -0.400797      0.63955    -0.350968    -0.749373     0.681684     0.223429     0.388002    -0.576648     -0.51731      1.02206    -0.840429    -0.397282      0.67277      1.04169   -0.0605828    -0.266491    -0.573445     0.616363      1.06683     -1.67626      1.00741    -0.585286     0.467064      1.03229     -1.17608       1.2907      -1.5036    -0.310411      1.04339    -0.924252     0.936055      2.00966     0.447579     -1.23756    0.0822144    -0.552255    0.0321156    -0.327899     0.397604    -0.503068     -1.02917      1.33358    -0.600038    -0.248931      -1.3752    -0.551748     -1.32848    -0.541256     -1.20237     0.743394    -0.188261     -0.27074      1.29563     0.701274     -3.58049    -0.153164   -0.0513842     0.386693    -0.376725    -0.102803     0.543585     0.859196    -0.203968     -1.41071    0.0981437     0.249442    -0.420854    -0.020367     -1.41307   -0.0404262     0.211644     -2.01147    -0.116888     0.864718     0.565094     0.364249    -0.647191     -1.11214    -0.601424      2.07466      1.21652
     -1.7923      1.12701    -0.964839    -0.230722     0.268283    -0.269111    -0.505282     0.904692    -0.802329     -2.23672    -0.875764    -0.254247     -1.32395     -1.24011      2.66067    -0.239521      -1.3264      1.81737     -1.31568     0.188574     0.833282    -0.582136     -1.21807    -0.547505    -0.235742    -0.992672     -2.24642       1.5978      1.21015     -1.03483      1.29209     0.780875     0.584279    -0.384114    -0.303241    -0.374509    0.0300036    -0.632022      1.57296     0.668257    -0.679819    -0.323185     0.137239     0.115453    -0.931644    -0.346248    -0.678066       1.5089     0.507444     -2.22334    -0.149062     0.514525    -0.136673    -0.609503    -0.725505     0.372682    -0.524415      0.13704     0.359468    -0.371756    -0.756685     0.838526    -0.590765        1.014   -0.0561801     0.996041   -0.0161701     0.513488    -0.477146     0.476876     0.391674    -0.300673     -1.68894     -1.64968     -0.80871      1.55343     0.113804     0.870093     0.244291    0.0450292     0.515592   -0.0104855     -1.44934     -1.16161    -0.706063      1.87049     -1.27556     0.463855     0.249385     -0.92939   -0.0547913      1.26199     0.977529     -0.35274    -0.523148    -0.270057      1.09695      1.83201     -1.44308     0.201865    -0.878064   0.00274536       1.2907    -0.714399    -0.183354     -0.22062     0.501863     -1.10903     0.648781      1.07707     0.842023     0.101136    -0.357475    0.0842801  -0.00395686     0.465668     -1.19278     0.489736    -0.932838     0.816235     0.511262     0.196066      2.00774    -0.350582      0.37747     0.422123     -1.05661    -0.632301     -1.54947      0.41186      1.02094     0.596551     0.282868    -0.614627     0.548175     0.186966     0.662288     -1.26293    -0.352419     0.542364     0.460453   -0.0704505     -1.53965    -0.875883      1.29038      -0.5266      2.06685    -0.503054    -0.745997      -1.3604    -0.763249    -0.913459     -0.20015     0.309588     -1.52848    -0.331595   -0.0399069     -1.10761    -0.257681   0.00300886     -1.89952      0.12239     -2.11351        1.128     0.113476     0.651067     -1.23114     -2.28804      2.28609     -1.63605    -0.721056     0.842572    -0.364613    -0.948117     0.546967     -1.61237     -2.10491      1.24054      0.80299    -0.686922      -1.6477    -0.772128    -0.786895      2.26386     0.848575    -0.480316     0.707386      1.35504      1.77556     -2.51251    -0.412321    -0.273942      1.22341     -1.00168      1.49453      1.00941
   -0.975471     0.817061    -0.628918    -0.776034     0.636604     0.540546     0.713829     -0.99549     -0.65078     -1.62123     0.276915      -1.4846     0.139879    -0.816833    -0.964409    -0.568261     -1.22749   -0.0429534     0.613365     0.576984       1.0623      1.07687      1.32693       0.7949     0.727294    0.0609237   -0.0734655      -1.8633    -0.413771      1.04734    -0.144981    -0.267893     -3.56132      0.58117     0.674373      1.35938     0.532009     0.725944    -0.424266     0.311036     0.485909     0.306497     -1.56603      1.83547     0.259949       2.6204     0.637777     -3.09217    -0.618546     0.709444     0.571925     0.763735    -0.775593      1.53466      1.55286     -0.32762     0.316844      0.77454    -0.659308       0.8367    0.0917624     0.460773     0.238708     -1.61932      1.04325   -0.0131907      2.24209     0.450817     0.627784     0.863099     -1.95154    -0.435173    -0.838884     -1.90225   -0.0362391    -0.360559     0.966662      2.45572    -0.320386     -0.24242   -0.0133427     0.239657    -0.324501     0.262977     -1.07313     0.057585      0.85743     0.654091    -0.729092    -0.528595     0.726428     0.763059    -0.482218     -1.11731     0.518355     0.606423     -1.19219      2.29407    -0.319105     0.177146     -1.77384    0.0197771   -0.0272916    -0.225038    -0.474586        1.089      0.86666      1.23884      0.32495   -0.0287445     0.827626     0.501387       1.3413     -1.64915    -0.630761    0.0948655     -1.00854    -0.425715    -0.276196    -0.264191      1.89285     0.672204     -0.93384     -1.04237      1.35882    -0.824487     0.605234     0.839239    -0.767236   -0.0421193      0.40868       1.6329    -0.909856      2.45761     -1.89802     0.275871     0.371129     0.917797    -0.476248   -0.0803261     -0.91665     0.379519    -0.926419    -0.695496     -0.63319     0.395033      -1.6598    -0.795125      1.86084     -1.40041    -0.355892      2.55261     0.635847      1.44568      1.13305       1.2116    -0.357465    -0.434261     0.911422    -0.383601     0.310446      1.78284    -0.456135     0.406287     0.165444    -0.906876    -0.369309   -0.0730974    -0.712669     -1.15136     0.752503     0.379266     -1.16307    -0.110906    0.0779459     0.125074     0.646639    -0.246923      1.24116     0.134352    0.0170716      1.45821      1.05694   -0.0149923     -2.51417     -1.35203    -0.536107     -0.19411      1.55921     -1.48859      0.34537     0.696831     0.139003     0.611139     -1.52319       1.1274
 -0.00119444    -0.603744    -0.446018    -0.301396      1.32297     0.673642    -0.621923     -1.19847      1.36877     0.856907      0.75316     0.961734      1.91914      1.52121      0.82072     -1.09317     0.458166    -0.987467     0.225011    -0.285266     0.450898     0.236878     -1.97898     -0.25219     0.247776      1.94531    -0.519756   -0.0853592      1.37797    -0.328867     -1.02207    -0.632458       1.1793     -0.16562    -0.310963     -0.70383    -0.862055    -0.841486     -1.31698     0.307278     -1.79315     0.595015    -0.465444     -0.70496      0.49812    -0.026381      1.41941    0.0979629      1.28829     0.453707    0.0055441     0.874375    0.0584603   -0.0136853      1.20417    -0.751577      0.24963     -1.55009    -0.885383    -0.852829     -1.72023      1.75553     -0.23837    -0.654827      1.79412     0.584423     0.860418      1.03862      1.17986      1.63877    -0.023203    -0.811737    -0.530735       1.0754     0.667415     -1.90079     0.891914      1.16295    -0.432147     0.615868     0.724037     0.882041     0.530187     -1.14836     0.938895      0.65975    -0.836954    -0.724459     -1.06789     -0.44623      2.24574    -0.655749     -1.05207     0.971078      2.40874     0.709159     0.308475     -2.85325    -0.693332     0.332514      1.38289    -0.324818    -0.068515     0.114458     -1.15849     -1.26223     0.792121    -0.611197    -0.394656     0.230128      -2.3101      0.26159     -2.06306    -0.685527    -0.883642    -0.448383     0.206196      1.38973    -0.789843    -0.226949     -0.32649   -0.0703018    -0.674123      1.40946     0.584598   0.00525918      1.24198    -0.475467     0.595597       1.5678     0.925445      0.28465     0.798602     -1.01009    -0.291591    -0.376649      0.19451    -0.782378    -0.421492      0.26286     -2.87336     0.424565     -0.47689     -1.12901      0.65357     0.257008    -0.388633      1.37054     -1.27424      1.98732    -0.171398     0.409616     0.292326     0.324808    -0.466751    -0.383414     -1.01481    0.0858714      1.43153      0.10092      1.10341     0.502677    -0.106831    -0.287473     -1.01967    -0.497161    -0.165538     -1.08204    -0.701842    0.0531143    0.0812149     -1.47758     0.537594      1.38808      1.36269      0.36372      1.33187    -0.109638     0.393362      1.22335     -1.06639      1.64761     0.784667    -0.776149      1.75457     -1.32485   -0.0191016     -1.41854     -1.43024    0.0631465    -0.181558    -0.791533    -0.827925    0.0361576    -0.900651     -1.51744
   -0.484535        1.639     0.808524    -0.602125     -1.40188    -0.243717     0.360715     0.997437      1.86125    0.0286394      1.13584    -0.237452      1.46158    -0.938606     -0.27957    -0.246049    -0.342353     -1.93333     0.787999    -0.750202     0.129166     -0.31531    -0.526824    0.0921792      2.09887     0.471988    -0.892645      0.27121      1.09505       0.9401      1.17822     0.168842     -1.05507    -0.379867     0.606079    -0.336634     0.566335      2.16508    -0.696829    -0.653457    -0.728066     -1.29913     -1.66871      1.55888      -2.1936     0.830534      0.96275      1.75646     0.831695     0.183776       -1.559    -0.353239     0.961317     -1.21174    -0.339904    -0.198912    -0.436965      1.96901    -0.508871     0.504496     0.870315  -0.00714261     0.163826    -0.297251    -0.455616     0.161796       1.1234      0.37039      -1.0513    -0.524109     0.173795     0.372484    -0.556225      2.42856     0.737248    -0.738899     0.754034  -0.00751837     -0.49895     0.148654      1.01077     0.173412    -0.231321    -0.528285      1.33876     0.461544     0.461842      0.78238     -1.42631      1.88394      1.34462      1.25775    -0.290957    -0.865792      1.13344    -0.431833    0.0185986    -0.403915    0.0980852     -1.00241    -0.766171    0.0189454     -2.53033    -0.176219     0.106717     -2.31862    -0.397479    -0.651477     0.192839     0.282408     0.761274     0.828693    -0.835981    0.0475782     0.222351    -0.859728   -0.0919158     0.211082      1.29428     0.126053    -0.908679      1.35178      1.83966    -0.296415    -0.715773    -0.431013    0.0701875     0.406119    -0.129088     0.911932    -0.139506      3.15348    -0.682083    -0.430336    0.0881909    -0.668092     0.856543     -0.39328        1.281      2.04563      1.33914      1.72347    -0.189106      1.98394     -1.37198     -1.15167     -1.91624     0.690946      1.04709     0.806775     0.618152     -1.46929     0.485981     0.130467    -0.115887    0.0941808     -1.77666     0.212058     0.714984      1.28356     -1.47757     0.717803      1.07586     -1.27617      -3.6714     0.670442      1.82992     0.600492     -0.15756    -0.654028     -0.95415     0.819801      1.26093     0.277882     0.687797    -0.219547    -0.818193     0.576198     -2.49803     0.115036    -0.392776     0.367516     -1.99322    -0.641178     0.259012      1.29437      1.69937     0.389009     0.729231     0.795482    -0.272668      1.94128     0.278804     0.436444     -1.02458     0.999334
    0.773857     0.024292   -0.0617637      1.04622    -0.171151     0.704138      1.38391    -0.894703     0.326783     -1.45521    -0.278919    -0.669017    -0.457977      1.06804      1.69208     0.313415     0.331633     0.479212     0.382863    -0.162595     0.514787    0.0231641     0.435806      0.28106     -2.87269    -0.272259     -1.14774     0.127895     -1.41728     -1.21808    -0.834602      0.49353    -0.642957     0.346824     -2.49515    -0.197449    -0.736554     0.680729      1.79331    -0.987458     0.249989    -0.590183    -0.852209    -0.218744    -0.273773     0.470115     -0.80266    -0.910609    -0.457938    -0.899168    -0.715111    -0.539095     0.596439     -1.95425    -0.630995     0.192259     -2.06362      1.39449     0.324764    -0.969023    0.0871665     0.887962    -0.728101    -0.340799    -0.428037    0.0294201     -1.37859     -1.25906     0.130279      0.65963     0.727364    -0.296471     0.666109     0.758351    -0.797127     0.684954      1.19048    -0.574642     -1.25294     -0.45478     0.795033      2.02718       1.4519    0.0203539      1.18914     0.427772    -0.321364     0.363142    -0.660796     0.137927      0.31573    0.0590788      1.58317      1.92479     0.220678    -0.153482    0.0574017    -0.494174     0.349118      1.33291     -1.77328     0.467948      1.56533     -1.44453     0.883889     0.382919    -0.550001     -2.07531     0.477851     0.573583     -0.19464     -1.01953      0.51474      1.60613     0.178766      1.45811     -1.00435    -0.180629     0.639336    0.0859738     0.124703       1.1853    -0.339588     0.481695   -0.0568892     0.556427     0.338508    -0.400368     0.801244     0.187946     0.916299    -0.186169     -1.62153    -0.172297      1.47053      1.53217    0.0685061     0.248012   -0.0917927     0.658236      1.27388     0.355031     0.653349    -0.968341    -0.743636        1.105     0.146852      1.21951     -1.40994    -0.482422      0.54347    0.0627997    -0.620564     -1.49662      0.18645     -1.17424     0.589528     0.543175    -0.177904     -0.67354     -1.74054     -1.20959   -0.0827102    -0.232689      0.66221     0.904757     -1.00306    -0.370394     -1.42177      -1.5999     -1.91247    -0.779223     0.814892     0.140404    -0.392757     -1.28801    -0.544149    -0.294748      1.37524    -0.902306    0.0370526     -1.15017    -0.160854     -1.33894     0.400756     0.783247     -1.94851      1.19082     -2.41833       1.0152     0.744702      2.55288      2.31211    -0.415538    -0.377724    -0.138815
   -0.574493     -1.11969      1.48401     0.371586    -0.500256     -1.07794     0.894913     -1.12292     -1.00465    -0.232544   -0.0990533     -1.27452     0.967434     0.282441     -1.20142     -1.44484    -0.615273     -1.49784     -1.48681    -0.280278    0.0354631    -0.069262    0.0848254    -0.763839     -1.35212     -0.50661     -2.16963    -0.198964    -0.673601    -0.570077     -2.51457      1.22617    0.0336359    0.0645571     0.815151      2.08079     -1.25702     0.340655     -1.20565    -0.274884    -0.342645    0.0199384    -0.600612     0.821765     0.612837    -0.595741    -0.640611     0.176595    -0.176967    -0.396092  -0.00140432     0.222258     -1.03165     -0.16436     0.553159    -0.755926    -0.329278    -0.311203     0.782332     -0.85094      1.72887     0.169884    -0.353346     0.408748     0.026223     -0.45321      1.20469     0.318654     0.917139    -0.449555      2.14208      1.94456      -1.2349    0.0470106     -1.15809     0.710541     0.728922    -0.891347     0.777394     0.505065     0.576614    -0.556436      -1.8779      0.96953     -1.53969     -0.49043     -1.08822     -1.03927   -0.0230494     -1.35793    -0.738108    -0.411875     -2.22495     -1.45586      1.36122     -2.53802     0.507988    -0.309704     -1.48821      1.37297     0.130935      2.05995 -0.000675325    -0.803856     0.221537    -0.929377    0.0346449     0.503316      -1.2268     0.576304     -1.22417    -0.611596    -0.699574      1.42163   -0.0831588    -0.860521      1.11843     -0.29685    0.0450012     0.482624     0.604473    -0.074612      0.90041      1.18071     -1.21722     0.572787     0.331237    -0.341321     -1.70228     -1.38693     0.724269    -0.618878    -0.751542    -0.906176     -2.31628      1.44645     0.630393      2.81078     -2.30561    -0.798157     0.347059     0.056221      2.94233     0.572702     -1.61055     -1.25474    -0.335348    -0.592779      1.75028      1.12063     0.415901     0.546173      1.58005     0.574017     0.120989      1.61595    0.0799497    -0.471269      1.04058    -0.280156    -0.571662      2.07103     -1.25031     0.186322     -1.41382      2.11694     0.331528     0.342281    -0.696534      1.12368   -0.0678852     -1.90911   -0.0192067     -1.23186     0.765828    -0.139058     0.301486     0.459718     -1.11447      2.36093     0.121721     -1.40369     0.231142    -0.821753     -1.02391    -0.671504     0.477996      0.25978    -0.249402      1.62927      1.13161     0.325315     -1.27645    0.0512922    -0.413518    -0.122373
     1.20706      -1.0026     0.416562      1.27761     0.691883    -0.867795      2.52109      0.97293    -0.500543      -0.5773    -0.961699     0.509834   -0.0409925    -0.849932    -0.339785    -0.605398     0.923412     0.892941    -0.307775     0.736521     0.797483    -0.393611     0.490406    -0.838913      1.76594      1.30424    -0.123259    -0.526851      1.96721     0.514872    -0.348678    0.0657147     -2.35997     -1.86645      0.41797    -0.312634     0.188051      1.01234     -1.24328      1.52394     -1.18726      2.55844    0.0589095     0.604094    -0.460109      1.33484     0.321575     -1.03426    -0.270806     -1.26344      1.02119     0.376636     -1.07471    -0.668264    -0.438136     0.288191    -0.803033      2.67243     0.252354     0.417378     -1.39858     -1.23033    -0.256601    -0.616141     0.473681    -0.211502       2.1911      1.20152     -1.38935    -0.887639     -2.56767     0.993344     0.275484    -0.726771    0.0764266     0.280426     0.530617    -0.631126    -0.187235      1.16803     0.317517    -0.595805     0.441539     0.352665     0.411397    -0.636886     0.097093     0.226509      0.87464      1.13777     0.986498      1.51738    0.0702365    -0.258631    -0.681077     0.094143    -0.500201     0.797935    -0.348211      -1.2228     -1.23169    0.0732077    -0.599144      0.89593     0.934132     0.436633     -2.20823   -0.0602632      -1.0121      2.32469      1.38171      -2.4913    -0.232118     -1.04662     0.709337      1.99151     -0.67077     -1.27476      2.04981    -0.243359      1.18071      2.24908      1.97022    -0.495827    -0.105831      1.64369     -1.22808    -0.462297       1.8783    -0.416695    -0.697476     0.113947    -0.647375    0.0950176     0.209836     -1.72185       1.1193     0.712604     0.584337      -1.1171    -0.578697       2.0768     0.695049     0.475001     0.884089     -1.83014      2.17883    -0.127726    -0.588968    -0.151231    -0.300713    -0.723295     0.627397     -2.39518      2.23777      1.25469     0.243204      1.80965     -2.63928     0.534129     0.381261     -1.09117     0.803215    -0.621182     0.378323    -0.696161     0.136488     -0.14139     -0.80026    -0.356451     -1.00242       2.0319      0.93531    -0.109033    0.0260606     -1.13881     0.014539     0.785448     -1.74236     -1.45577    -0.276379    -0.523967     0.610367       2.2218      1.12176     0.202173      1.38252     0.471608    -0.847211      0.80162     -1.68736     0.391606    -0.659117     0.268171     -1.93548    -0.500722
  -0.0385243  -0.00931342      -0.1612     -0.82994     -1.16427     0.735459     0.894939    -0.402243     -1.49716    -0.988529   -0.0203504    -0.404487      0.44059    -0.986838    -0.263844    -0.522366     0.829051      1.91597      0.33971     0.344127    -0.346895    -0.329931     -1.62346    -0.282218    -0.959543      -0.8605    -0.915901      2.02407      2.27255     0.622834     -1.47429      1.55719      0.75677    0.0664146      3.31754    -0.429583      -1.7001     -1.11997      0.73381    -0.813086     0.203062      1.85944     -1.45928     0.997469     -0.23261     -1.49594     0.569136     -1.87107     0.385983     -1.43802     0.989218     0.523784    -0.869858    -0.252783      1.02527     0.180271     0.540765    -0.785096    -0.107533        0.881      1.13611     0.584125     0.897669    -0.356246     -1.24547     0.280099    -0.501475     0.372852     0.676705     0.504566     -2.10347    -0.651329     0.472566     0.451567     0.794352    -0.418594    -0.401217   -0.0569056      1.00229    -0.122523      -1.2544     -1.14763      1.24224     0.798194    -0.698975     -1.01225     -1.40158    -0.175467     0.385271    -0.052754      1.09944      1.00809      -2.4076     0.235123      0.86143     0.507577     0.490617      2.25272     0.834193    -0.356041     0.966443    -0.691403     0.579364    -0.698937    -0.228402      -1.2927     -2.13194    -0.493693      1.25389    -0.763585     0.885695     0.664313    -0.137784       0.5373     0.523023     0.267825    -0.208444     0.407612    -0.564277    0.0314207    -0.794481      1.15246     -2.59499    0.0199209   -0.0113224     0.184332       1.6099    -0.765187    0.0338665    -0.819386      2.52864     -0.15368     0.453081     0.532927    -0.513094     -1.52011     0.152195     0.960821     -2.17645     -1.89746    -0.299581     0.501638     0.525888    -0.265614      1.39112     0.628495    -0.857499     -1.28959      1.25106     0.583707     -2.02821      1.25903      1.40048     0.238681     -1.59064     0.188385       -1.174      2.75066     -0.58867      1.48928     0.256967     0.931635     0.932911      0.35765    -0.536353     -1.26203     -0.27747      1.74896   -0.0786647     0.172573    -0.712444       1.6192     -1.26548   -0.0950837     0.330753    -0.793869    -0.846932     0.927057   -0.0733741     0.678535     -0.23381     0.593277     0.369081    0.0787101      1.13134    -0.795622     0.824217    -0.504619     0.115021      2.69312     0.183425     0.601202      -1.1354     -1.55243    -0.752009      1.69035
     -1.0827     0.391396     0.418514       1.1932     0.301486    -0.492405     -1.93826    -0.228214     0.909826   -0.0686919      1.76547    -0.997637    0.0930661     0.608731      0.89092     0.291193     0.431946    -0.346541     -1.12932     -1.59504     0.407511     -0.63009     -2.44843    0.0362863     0.396642      1.48376     0.069605     0.419817     0.593353    -0.680956     0.175908    -0.682131      1.42178     -1.09673     0.906893      1.31352    -0.561628    -0.252908     0.248828     -1.50191     -0.11697    -0.543569      1.04687    -0.441559     -0.86171      -1.0638    -0.777974      0.50067      1.25163    0.0487477    -0.357235       1.4216     -1.16379    -0.530688      1.04611     0.380393     0.130893       -0.626    -0.704448     0.618603     -1.84187     0.722974      1.63856     0.770396    0.0722269    -0.882219     -0.29513 -0.000703282     -2.12905      2.04314    -0.916596      1.24702     -0.94745     -1.83056     -1.18755       0.2631     0.339288      1.23812      1.41081      -0.9939   -0.0581762       1.0242      1.72971     0.697681     -1.87854    -0.689261    0.0823919    0.0325658    -0.705077     -2.09506    -0.779623    -0.545926     0.244643     -1.20856     -1.83318      1.06813     -0.57891    -0.900418    -0.710231     0.430495     0.483115      2.52421      1.77861      1.03886     0.797378     0.611346   0.00491941      -0.3018    -0.782513      1.57241      2.01162     0.743605   0.00297645     -1.30302     0.281726     -1.26135      2.09395     0.252353      1.36166    0.0174517     0.881174    -0.866792     -1.36181     0.566994     0.292364     -1.39576    -0.654582     -1.27753     0.111363     0.407136     0.100163    -0.820066    -0.510597   -0.0289996   0.00680915    -0.314959      1.07846      3.51097       0.7447    -0.518205     -1.55005     0.213882     0.658704    -0.713036       0.4777     0.602112     -1.20919    -0.683772     0.853679     -1.11339    -0.232242      1.08163     -0.51774      1.09727      0.31709    -0.494625      0.62962     0.510643    -0.611202    0.0667644     0.765939     0.940037    -0.388922     0.772579   -0.0402865    -0.394518    -0.989702    -0.577178    -0.191837     0.603612    -0.459408    -0.766154    -0.320636      1.50813    -0.913361     -0.96398     -0.48633      1.10971     -1.25714     0.683387      -1.2441     0.487547    -0.382025     0.113778     0.585075       2.2581     -1.68716    -0.751342     0.213013      1.24622    -0.678461     -1.09783     -1.56365      1.04608     0.703648    0.0430421
   -0.221316    -0.497333    -0.948529     0.214423      1.12422     -1.00017      -0.5326      1.82399      2.90034    -0.805306    0.0509835     -2.84141     0.978617     0.361288   -0.0618479      2.34825      1.20162     0.463885      1.28676      0.07125      1.84046     0.227491   -0.0469629      0.42915     -1.58464     0.266816    -0.647173    -0.510371    0.0235423    0.0775961     -1.27732    -0.364376     0.853983     0.508045    -0.572551      0.40308      1.26344    -0.540204    0.0798026     0.163579      1.88615     0.172763      1.63092     -0.44307     -1.38165      1.63974     -1.33462     -1.50845     0.673691     0.376474     0.761436    -0.894276     0.536587     0.890475     0.833866     0.260656      0.97484    -0.614744     -1.27691     0.449113      2.53071     0.700075     0.396485     0.130114    0.0911854    -0.694824     0.816886     -1.18032     -1.47735      1.30132      1.27685    -0.751813      2.71791      1.55058     -1.38055    -0.569197     -1.52015     0.366095     0.646447      -1.9599     -2.24623      2.06071     0.271827     0.882058     -1.24093     -1.65997     -0.51813    -0.939048     -1.64085     0.902781     0.364936      1.30718     0.442565     0.214945     -2.21447    -0.353285      1.32669     0.448886     -1.12486     -2.12232     -1.71008    -0.625833      1.18307    -0.225376     0.556003     -1.29794      2.42216     0.690084     0.799328   -0.0398068    -0.238667   0.00322967      1.21984      1.23662    -0.989795      1.28878     0.981083  -0.00554066     -2.08351     0.191133     -1.43104     0.981683      1.75431      2.90039    -0.378401    -0.695848     -1.88201     -1.60074    0.0639893     -1.11756     0.866301      2.28411     -1.95818    -0.305176    -0.799172   -0.0771607     0.393582      1.35095    -0.868153     0.549425     -2.10485     -0.57622   -0.0404035      2.15901    -0.604506   -0.0351069     -1.76178    -0.675743     -2.30256     0.104089    -0.388621     0.241543    -0.925303    -0.407654     0.313212   -0.0849617      0.39911     0.565131    -0.857667    -0.196713    -0.785506    -0.703728    -0.669129     -1.02227     0.938261    -0.825805     0.433627      1.97733     -1.59252     -1.06244     0.478511    -0.224982     0.364986     0.219019    0.0498551    -0.842761      1.10279    -0.235009      -1.0804     0.236885     0.221224    -0.461298      1.46591     -1.13608    0.0561797    -0.225579    -0.485174     -2.05167     -0.18234     0.621832      1.45604     0.580644     -2.03907       1.5981     -2.04789     0.491367
   -0.757454     -1.32077      1.53766     0.763814   -0.0674898     -1.02626     -1.45678    -0.896098    -0.414602      -0.5731     0.965852      0.97239     -1.53834     -0.41694    -0.145489     -1.52889     0.920948     0.240656      1.02585    -0.888321     -1.13329      -1.3294     0.716893      1.07192      1.32744     -1.94796    -0.703227    -0.110643     -2.04129    -0.283308       1.0782     0.415964     -0.75636      1.24659     -0.48403     0.482069    -0.148397    -0.181522    -0.464056      1.86266      1.77956     -1.49081     0.111266     0.733252     0.384176    -0.773095       1.3009      1.83832    -0.883549    -0.258996     -2.19445    -0.254506      1.16619    -0.802489    -0.247394      -1.0012       1.3635     0.147887      1.57792     -0.39413    -0.078062    -0.139449    -0.944203     0.567927     -1.00326    -0.255491    -0.292039      -1.4099    -0.705564     0.597367     0.257175      1.17205      1.74923    -0.357388     0.190519     0.405607     0.417876     0.418671     0.319527     0.139807     0.021196     0.644188    -0.459018    -0.841262     -1.22451     0.149946      2.00523    -0.801162     0.116816     -1.18015      -1.1708     0.767208     0.257427     0.658346     0.826489     -1.83973     0.738269     -1.18938    -0.317112    -0.732409     0.260066     0.955978    -0.170163     0.253161     -1.55298     0.210568     0.685093      2.21475      0.55934    -0.675727    -0.817965    -0.831816     0.619342      1.11152     -1.11035     0.878816      0.19002     -2.03264    0.0625942     0.915402    -0.096226     -1.79401    -0.271323     -0.65886     -1.10858   -0.0722033    -0.420535      1.16668    0.0463536     -1.01108   -0.0159465     0.620921    -0.169258     0.699764      1.15751    -0.320391      1.72818   -0.0622974    -0.828547   -0.0664696      -1.8825    -0.676983      1.20959    -0.188691     0.187567     -2.07235      1.00456     -1.85068     0.149772     0.437392     0.362699     -1.39399      2.08225     0.233017    -0.708172    0.0647334      1.42205     -1.28944      1.56671      2.26848     0.416783     0.541034    -0.218312     0.110815     -2.11884      1.07282     0.895333      1.24251    -0.277203    -0.744882     0.831102     0.155105     -0.50408     0.998114     0.657232    -0.376256     0.094806    -0.875135     0.647347   0.00312708     -1.35199    -0.331795      1.07129   -0.0100982      1.56567     0.645674    -0.455557     -1.39002     0.466224    -0.557423      1.01205    -0.424708    -0.430563      2.26265     0.797164    0.0902968
    0.328607    -0.356252     -1.31372     0.275253    -0.294973     0.902106    0.0595468     -2.81488     0.908201       2.2296    -0.624323     0.247257     0.353518     -1.05773      -1.5589     0.409095     -1.32409     0.435406     0.704216    -0.451119   -0.0824809     0.410174     -1.12341    -0.526856     0.968807     -1.51024    -0.347923    0.0997952     -1.90121     -1.34793    -0.320652    -0.202909     -1.56653    -0.647379     -1.60775     -1.30946     0.871651      3.19933      1.67211     -1.71794     -1.23701     -1.02897   0.00157381    -0.919059     -1.17714    -0.273119     0.244154     -0.20209     0.809335    -0.132492     0.765911    0.0378825     0.421305     0.663016    -0.351175     0.503728     -0.44047     0.274547    -0.642841     0.501573      0.66631    -0.843242     0.355657    -0.661534      2.23367    -0.523244      1.29403     -1.42159    -0.913007     0.214377      -1.2773    -0.592801   -0.0208578    -0.787493     -1.04585      0.32384     0.901387    -0.966995    0.0602087     0.742029    -0.165819     0.803473     0.698258     0.380572     -2.08832    -0.604263    -0.544415     0.354818      1.20532     0.173736      -1.1009      0.10494     -1.24339     -1.95967     0.631491     0.207226      1.22797     0.606006    -0.310097      1.52806     -2.00888       1.5624     0.779378     0.284448     -1.62245     0.824771     -1.00486     0.288395    -0.888481     -0.85538      0.12471    -0.044185     -2.50819      1.82081     0.183733    -0.400588    -0.131084     0.456897     0.539916     0.429271    -0.558224    -0.526509    -0.586871    0.0438422   -0.0233435    -0.257588      0.25219      1.07317     0.718377     0.361381    -0.790621     0.869055      -1.0264     0.494163     0.655127      1.41975      1.02905    -0.197543    -0.831746    -0.193998     -1.12183     -0.27848      1.58456     -1.05827     0.780902     0.243468       -1.785     0.226829      1.27681     0.314888     -1.31452     0.135783     -1.58565      -1.3229    -0.134256     0.211804      1.56417    -0.102242    -0.134472    -0.281913    -0.722991      1.16647     0.530961     0.130642    -0.657072    -0.663969    -0.500776     -1.29027      1.46124     0.125087     0.636124        1.175      1.85219     0.659781     0.764951     0.620708    -0.750679      2.23771      1.31494    -0.783212     0.176169    -0.413138     0.969508    -0.874063     -1.16068     -1.27855     0.598152     0.255745    -0.312094     -1.08596     0.982167    -0.507713   -0.0107315     -2.20665    -0.275008    -0.558768
    0.890185     0.370765     0.651938    -0.158275    -0.116845       1.9634    -0.835429     0.876785    -0.473997     -1.49013     -1.07486     0.254654     0.458978    -0.532984      2.37074     0.137325    -0.026206      1.40871    0.0201583     -1.24394     0.856956     0.236938     0.325725    -0.188141     -1.59819     0.459531     0.330525    -0.163129     0.459072      1.44236   -0.0553167     0.648038      1.77779     0.233735    0.0314924    -0.318806     0.156288    -0.119081     0.622047     0.131171     0.455525     0.156228     0.408122     0.835151      0.67584      1.13032     0.698888      1.46718     0.308437     0.685298      0.27122    -0.926934    -0.990655     0.892459     0.872898    -0.524276    -0.319149    -0.360243    -0.108256    -0.318276      1.24831    -0.274154     0.491853      1.20708    -0.950608      1.19648      1.39904    -0.291742     0.244368   -0.0901495     0.443673      1.54159     -0.45205     0.603957     0.722556      1.63495      1.05185     0.576957    -0.193732      1.24559     -0.61319    -0.257343     0.156531     0.113467    -0.665623    -0.366327    -0.217243     -1.04427    -0.612163   0.00651169      1.93318    -0.302529   0.00896834     0.428103     0.409858      0.99952     0.922156     0.140017     0.178839     0.633424    -0.680815    -0.569337      -2.4348    -0.990069    -0.248503     0.760311     0.701796     -2.06602    -0.191103     0.519486    -0.625688    -0.112823     0.973799     0.602246      1.20867    -0.507799    -0.974049     0.160178   -0.0609867   -0.0210036    -0.512546    0.0927454     0.482848    -0.456357    -0.504659      1.39003    -0.326103     -1.43438    -0.729547     0.787878    -0.309119    -0.515794     -1.19499    -0.660022     -2.57366     -1.36086    -0.263295     -1.24038   -0.0979872     -0.71173     0.667328     0.477032   -0.0658214    0.0475269    0.0631571     -1.30725      1.42399    0.0147922    -0.337396     -1.06113     0.567211     -1.06455     -1.23527     0.726328     -0.28271      1.01906    0.0253246    -0.762958    -0.379996   -0.0199494    -0.177125    -0.919851      0.19356    -0.970208     -1.08372     -1.54576     0.558718    -0.258512     -1.30831      0.12467    -0.694336    -0.250989    -0.748666     -0.38062    -0.656648      -1.0167      0.19675     0.821182      -0.3197    -0.152406      1.70536     -2.16678   -0.0398009      1.24202      1.08748      -1.4827     -1.07929    -0.244925      1.86152    -0.221505     -1.28703      1.22723      0.44896      1.69897     0.115983     0.162669
   -0.740297     0.957991     -2.52102    -0.733507       1.1262    -0.560499     -1.20006     0.454399    -0.835137     0.351767     -1.40147    -0.404931     -3.35158    -0.799718      1.11587     0.298346      1.13871     -2.05591     0.823386     -1.51776    -0.273097    -0.674676      1.70701    -0.976158    0.0342325      1.16871     -1.19749    0.0401423     -1.32473    -0.553893      1.33564     0.603801     0.151819     0.716698    -0.509161     -2.62926     0.879568    -0.203375    -0.796319      1.08708    -0.727063     0.649465     0.872496     0.220699     -1.12486   -0.0469886     -1.55801     0.347309    -0.336872     -1.02066     0.707512     0.245656      1.44227    -0.419332     -1.71162   0.00819436     -1.86287    -0.146684     0.170695     -1.60179      1.11973     -0.61732     0.298633     0.153496     0.734385      1.08786     -1.20709     -1.63211     0.184727    0.0336873     0.843845    -0.517024     0.188664    -0.103265    -0.209718     0.170725     -0.49083     -1.76242     0.290451    -0.403235     0.847529      1.27821    -0.914273    -0.540889     0.229532     0.116403    0.0724942     -1.50508    -0.145417      -1.6843    -0.611446     0.301209     -1.35153      1.11204    -0.606829     0.513813    -0.562432      0.28124     -1.21329       1.3681    -0.191712     0.150862     -1.87369   -0.0784965   -0.0414414    -0.976982    -0.976855   -0.0314145     0.628312     0.300044    -0.587569      1.27882     -0.55174    -0.570571     0.316225      -1.9947     -1.98838    -0.261361    -0.524511     -1.34571     -1.78651    -0.734957      1.71786     0.781405      1.19922     -0.92663   -0.0921364   -0.0521717    -0.633334     -1.45106   -0.0577261     -1.66976     0.441444       2.5644    -0.326669     0.536126      1.54375    -0.655123      1.17964     0.181641     0.573444      1.99033    0.0474302      1.18905    -0.694494     0.569835      1.17884    -0.111759    -0.702232     0.253263    0.0926917     0.437453    -0.146629     -0.67877    -0.376282    -0.789397     0.610658     -1.11701     0.177275     -2.22816     -1.38662      -1.3208     -1.94207     -2.30094     -2.21802     0.114445      0.48941    -0.129737    -0.602368     -0.53857    -0.708095     -1.40959     -0.91956    -0.113951    -0.136315    -0.381941     0.426412      1.37404     0.577045     -1.61252     0.413263      1.36171    -0.569856     -1.87113     -1.05566      0.79695      2.00545    -0.217067       1.4786     -1.83787      1.12534     -1.92807     -1.83577    -0.225253    -0.299951     0.013895
  -0.0888426     -1.16875     -1.33301    -0.191278     -1.31139     0.937239    -0.690976     0.739423     0.280421    -0.475885     -0.48537    -0.928784      1.14952    -0.257164      2.02871     0.631041     0.379243    -0.267944    -0.285452  -0.00307968      1.92081     -2.71419     0.144122    -0.883147    -0.191734     0.113067     0.882415     0.352059     0.830156     -0.55259     -1.40904     -1.17182    -0.450788    -0.721529    -0.502578     0.256823      0.42837     0.560704     0.646013      1.24811      1.10692    -0.527436   -0.0570584   -0.0459304     0.661826      -1.8532     -1.52567      1.06101    0.0749343    -0.386933    -0.224316     -1.19081     0.218042      0.65375    -0.738858     0.229066     0.800218     0.371704    -0.489505    -0.737766      0.96356    -0.311628      1.71614    -0.337274    -0.783545     0.654527    -0.321415   -0.0505129     0.385313    -0.369568     0.959775      1.30638     0.568012      1.05557    -0.421452     0.442086  -0.00253055     0.953793     0.575193      0.29881      -1.0035      1.91909     0.469204    -0.237051     0.115663     0.683048     0.106209    -0.155582    -0.176817      1.98529    0.0355173     -2.91518     -0.21332     -0.13014    -0.437817     -1.78717    -0.330306    0.0847982     0.672121      2.00765    -0.809683      1.04158     -1.50562     -1.38383    -0.734145    -0.228623    -0.331022      1.73726    -0.317965      0.39608     -1.85763     0.366436     -0.47755     0.637544     0.826132     -1.21376     -1.63732    -0.211168     0.793447    -0.649157    0.0723581     -0.90098    -0.411634      1.74076      1.51827    -0.108808     0.548768     0.236458    -0.932182     0.604015     0.943308    -0.635493    -0.298583      0.12861     0.997717    -0.589029    -0.271402     -1.90211    -0.453837     -1.65713    -0.412789     0.711758    -0.173496    -0.246143      1.34032     0.790503    -0.999969     0.946675     0.326496     0.134883     -1.77435     0.864077    0.0929636    0.0680685     0.421185     -1.00033    -0.407697     0.947704    -0.364796     0.159599    -0.246433      1.40926    -0.685728     -0.62663    -0.787462    -0.491741      1.05671     0.166167    -0.863248    0.0278284     0.568943    -0.143444     -1.06501      1.74812    -0.801906      1.20767    -0.728039      1.12759    -0.916558     0.516983    -0.521081     0.121826    -0.406446     0.622696     0.131217     0.643393     0.876239    -0.761668     0.614847     0.287478     -1.25481    -0.398035     -1.40488     -1.41691    -0.783062    -0.307737
   -0.173412     0.610904     0.565828      1.38936    -0.710706    -0.256403     -2.15596     0.458996      1.41673   -0.0341306    -0.940513     0.403992    -0.436482      1.10507     -0.45564     -1.02432     -1.04461   -0.0430451    -0.698978      1.29471     -1.17647     0.885296      1.08101     0.568841     -1.50575      1.27614    -0.265079      3.53415     -1.75838      1.64039    -0.548599    0.0600444     -1.08313      0.94169    -0.968221   -0.0720673    -0.702065     -1.39907    -0.341054    -0.849026    0.0591491    -0.145553    -0.152155     0.781291     -1.39607      1.13066      1.06949     0.427684     0.109009     0.708457     0.400394      1.75989      1.23497     0.407953    -0.688357      1.85175     0.648499     0.943713      -2.7429    -0.727936    -0.888563     -0.70475     -0.16589     -1.70147    0.0713218    -0.944054     0.195824      1.56611      -2.5139      1.06553      -1.7831    -0.180326    -0.344974      1.21923     -4.13051    -0.284389      -2.7447    -0.741452     -2.62923    -0.602141     0.339895     0.711004     0.770596    -0.469302    -0.865153     0.190547     -1.38422     -1.10693    -0.292806     -0.71708      2.01838     0.950066    -0.691034    -0.544113     -0.92298    -0.345396    -0.845157     0.332978    -0.273043     -2.58086     -1.04419     -1.63269     -2.20424    -0.546615    -0.284546     0.874656    -0.111727    -0.449189        1.484      1.24647    -0.296422    -0.482425    -0.543799      1.63706    -0.184471       1.8073      1.01067     0.138617      1.20286      0.96947      -0.4435     0.315637    -0.431816     -0.52921     -1.23763     -1.34226     0.380262    -0.190385     0.445885    -0.767868     -1.68363    -0.335714    0.0202053    -0.846024    -0.217612    -0.578018     0.150679     0.784019    -0.601956     0.116853    -0.335517     0.856027     -1.24977     0.375836     -0.78999       2.4192     0.435251      2.35303     0.908165    -0.977529      1.44678     -0.60077     -1.21666      1.08315      0.18581      0.99503     0.464763     -1.04769    -0.482231       0.2207     0.838419     -1.39673      -1.5509    -0.330442     -1.38705    -0.680468     0.816991     0.732687   -0.0064546      1.28442     0.641567    -0.545595    -0.291086     -1.58814      0.88835    -0.136421    -0.260248    -0.812337     0.315845     -1.89454      1.01869     0.500759    -0.791303     0.430908     -1.17201     0.522791      1.14415     -1.11172      1.50987    -0.604657     0.103174     0.295391     -1.54554     0.484833    0.0675581    -0.327921
    -0.37401    -0.196684      0.46241     0.886816      1.78101    0.0449977     -0.33108    -0.768921   -0.0264527     0.394357     0.278698   -0.0798389     -1.83151    -0.274882   -0.0603612    -0.473703      1.30942    -0.281463    -0.856603    -0.130761     0.420897    -0.448277     0.447304        0.366    -0.393786      1.12118   -0.0454853      -1.9344    -0.725141       0.9691    -0.574311     0.333748    -0.598095     0.842621    -0.397638     0.591151      1.27339      1.16782     -1.17249     0.955955      2.53703      -0.8013     0.377588     0.525372     0.059155    -0.711153    -0.794427     -1.10208    -0.970602    -0.548759    -0.391117     0.171934     0.271732      1.13218    -0.318979     0.912549     0.232896       1.3547     0.101586    -0.258117     -1.78628    -0.679816    0.0894132    -0.870625      1.99286    -0.364693     0.460541    -0.852184      1.21985    -0.679106     -1.38935     -1.35539    -0.199848     -1.41093       1.0572     0.290958      1.53187     -1.10114   0.00718514     0.860921    -0.405768    -0.429714     0.626831      1.64886     0.159526    -0.213968      1.21722     -1.55151    -0.828164    0.0635412     -1.66457      1.50573    -0.954213    -0.490184     0.864696    -0.900888      -0.8567     -1.01627     0.211659       2.3628    -0.236861     0.989855     0.261019     0.355001     -0.14164     0.223206     0.192178    -0.959119    -0.274168    -0.230142    -0.880503     0.315877    -0.248195    -0.037228     -1.20321     -1.87094    -0.193507     0.104431     0.214681      2.25769   -0.0868826   0.00496941      1.29611     0.762507     0.280735     0.865863    -0.857694     -1.80877     -1.78398      1.76173     0.414896    0.0317031      2.20246     0.472157      1.41047   -0.0915461      1.20475     0.339658    -0.436115    -0.757318    -0.636467    -0.742302     0.329484     0.922744   -0.0828965    -0.725439     0.227923     -1.13214      -1.1464    -0.613259     -1.12971     -1.31117     0.212878    -0.516684    -0.252239    -0.726754     0.542279    -0.514122     0.656454     -2.14074     -0.51399      1.06022     0.256531     0.355756      1.16458    0.0845206     -1.02595    -0.636214     -1.08135    -0.367505     0.359292     -1.09569     0.647243     -1.02652     0.454373     0.223065      -1.0487   -0.0857212     0.180516     -2.07164    -0.831862     0.597975      -2.0715      2.13258    -0.995379     0.764554     -1.90602    -0.638387    -0.484826     -1.93044   -0.0698459      2.98871      1.14209      2.14409     0.347112     0.326658
    0.205429       0.3658     -1.11493     0.379223    -0.785392     0.825461      1.57042    -0.701822     -1.66378    0.0900809     0.467899     -1.27329    -0.722765     -1.34598     0.869181    -0.130469     -1.54192    -0.734786    -0.240996     0.837758     0.994151     0.930178    -0.441434      1.17462     -1.55625     0.477932     0.216591    0.0718485     -1.38252    -0.472033     -1.53859    -0.439291    -0.715856    -0.582048     0.560297     0.664311     0.631769    -0.216268    -0.532072     0.192296     0.269976      1.17979    -0.212204    0.0411429     0.267316     0.251985    -0.220495     0.511278     0.282329      1.22732     -1.77202     -1.86226    -0.525719    -0.954951    -0.770785    -0.160306      -1.9353     -1.29786     -1.39057    -0.489286    0.0189799      1.46937    -0.134593     -0.25046     0.239932     0.430275     0.797806    -0.834443   -0.0250638    -0.670852     -1.86231      -1.5404    -0.507871    -0.539284    -0.695189      1.14161     0.369101     -0.55014      0.37652     -0.24317     -1.05819     -1.81473     0.524709    -0.304681     0.381648    -0.234958    -0.730302      1.34889    -0.547824    -0.372283     0.495719     0.118795    0.0537546    -0.247536   -0.0654016     0.743519     -1.54916     -2.22864      1.00591     0.957179     0.906659     0.933089      0.32247     -2.06398     0.047395     0.102125    -0.702114    -0.783926      1.23029      1.01253     -1.08815      1.50907    -0.651251    -0.417418     0.746709     -1.20765   -0.0324987      1.13045     -1.02172   -0.0887626    -0.797268     0.337467    -0.206418     -1.00145    -0.272176    0.0852729     -1.30831     0.190937     0.415663     -0.97748    -0.986339     -1.40212    -0.557869    -0.498222    -0.258943    -0.570419   -0.0680225    -0.165343      1.74534     -1.50834     -1.16786     0.625671     0.874067     -1.48129     0.439956     -3.40836    -0.185553     0.372703      0.74575     0.734159     -1.09552     0.126194      1.71424     -1.04389     0.588344     -0.12463     -2.46027     0.977245     -1.24326     -1.15722     -0.37703    0.0508274     -1.20973     0.347583    -0.849147     -1.29621    -0.787051      0.12551     0.879772     -2.11653     0.204964      1.31623      1.72799     0.163058    -0.352048    0.0442864     -0.21226     0.427648      0.49869     0.866659    -0.481729     -2.01548    0.0752625     -1.09388    -0.205964     0.554569    -0.671484    -0.914204     -0.86093     0.165457     0.489027    -0.513101      0.79137     0.191809      1.41618     -1.86216
    0.270696    -0.186361      0.93301    -0.722656    -0.433195     0.994963     -1.33604      1.67775      1.89099   -0.0244285      0.93368     -2.29281     0.301448       1.2292      1.62658      2.07069    -0.172266    -0.227483      1.34074      0.13588    0.0466309    0.0324548     0.396043     -2.44562     -0.69411     0.684118    -0.627736      1.67649     0.313327    -0.293294     0.400717     0.206785  -0.00165893    -0.556787     -1.97417    0.0024561    -0.673278     0.650141     0.925983     0.580796      0.14664    -0.992065     0.142629      2.45619    -0.870477     0.021106    -0.131093     0.890893     0.877229     -1.50998    -0.327541    -0.731292      2.13214    -0.509108      0.75109     0.998148    -0.781786     0.443267     0.107349     0.670126    -0.242255     0.450048    -0.976166    -0.365759    0.0795148    -0.409561      2.34073     0.275986     0.696943     0.553537     -2.19323    -0.307218     -1.12581      2.52984       1.0668      1.18722    -0.340296       2.0693    -0.946373      1.88622     0.713995       1.5313   -0.0489616      -1.3584     0.530275    -0.613642    -0.931862     -0.11391     -1.80283    -0.795354    -0.344577     -0.96725    0.0443186     -1.32114     -1.12402     -0.57682     0.278605      1.05135    -0.457687     -0.11187      2.18922    -0.222504     -1.27568      -3.4361     0.243587      1.08464      1.72258    -0.397569    -0.297664    -0.803729      1.25955   -0.0886802     -1.61459     0.309417    -0.416086     -2.20323     0.637391    -0.207865    -0.122441     0.333918     -0.70605   -0.0408288      -2.2128     0.900954     -0.37541     0.612169     -1.23039    -0.563659     -1.92572     0.400011 -0.000814156     0.239072     -1.05533     0.570182      0.30458     0.543692     0.425388     -1.79048    -0.211914    -0.551346    -0.655496    -0.890323    -0.639857      1.27624      1.12901      0.41825      1.70241    -0.983823     -1.26091      -1.1993     0.413533     -1.69943     0.204191      1.31735    -0.288119     0.335078      1.87108     0.352726     0.996824    -0.345688      0.23544      1.41971   -0.0249321       -0.994     0.116876   -0.0880159     0.513217    -0.302287     -1.27744      1.07217    -0.657314      2.15775     0.643328     0.695958    -0.442026      2.01725   -0.0449062    -0.226405    -0.604111     0.907542     0.296124     0.321217    -0.871969    -0.341456    -0.295198     0.231322     0.170112     0.240117       1.0918    -0.699814     0.165329   -0.0364441    -0.535852     0.291234    -0.480121    0.0496268
     1.03665   0.00916041     -1.52569     0.516259      0.84372     0.273636     -0.49804     0.822967    -0.346834    -0.275684    -0.638078      -1.3602    -0.915195     0.762357     -2.08648      1.40241     0.458052      1.01495    -0.484449     -1.05633    -0.718276    -0.455873    -0.397407     -2.14569   -0.0706947     0.741821    -0.988121      0.77022    -0.134199    -0.450658     0.109017    -0.376238     0.149931    -0.672554     -1.13113    -0.853911      1.16551     -1.40625      0.44554     -0.85753    -0.473384     0.569451      0.22276     0.938704     -1.65076     0.150692      1.97137     -0.28896    -0.676207     0.185671     -0.68977     0.565669     0.790523    -0.635043     0.470951     -1.03287     -0.84551    -0.669606    -0.424937      1.01847     -1.38605     0.546319     0.740114   -0.0714517      1.25767       -0.292     0.511955     -0.38551    -0.455181     -0.41589      1.82355     0.776888     0.465772    -0.257687      2.27569    -0.302322      -1.8878      2.07731     0.506913     0.422324     0.656103    -0.971185      1.20581    -0.188501     0.404216     0.718873    -0.263485      1.22309      0.34193    -0.539561    -0.159682     0.129068   -0.0964353    -0.119579     -1.21585     0.271369     0.172336      1.20306     -1.22226     0.503294    -0.629254     -1.89517    0.0251631      -2.6897    -0.843842     0.124317     0.521481    0.0755101     0.511134      2.02567     -1.03375      0.81356     0.467308     0.767855     -1.10959    -0.201238     0.969453     -1.42379      1.16931     -1.06802      2.02736     -2.59038     0.429322     -2.31789   0.00736063    -0.248418     0.134794    -0.635304     0.640589      0.49077     0.316991    -0.728817      0.63657    -0.885346     0.632276    -0.503725     -1.56366    -0.147666     0.849148     0.770064      1.56165     0.569213      1.31339      1.48722      1.59142   0.00786141   -0.0239529    -0.951932     -1.28366    -0.134852     0.866539     0.197529      1.15799      1.37643    -0.966265      1.54562      0.28689     -1.47259     -0.69675    0.0705223    -0.933409     0.548764      -0.3094     -1.42624     -1.97511      1.72912     0.597804      2.32986    -0.185004    -0.952361     -1.26052     0.323308     -1.97762     -1.28923     -1.67624      0.23835     0.132431    0.0700289    -0.655347    -0.372003    0.0388782    -0.530628     0.774686     -1.15586      1.43303     -1.58109     0.725794     -0.15017      1.93769      -2.0151    -0.373962       1.0728     -1.61742      1.59327     -1.15429       2.0038
   -0.262659     0.218148     0.965375     0.311484    -0.638218     0.292586    0.0672187     0.452002     -0.41842      1.83446    -0.966434     -1.72596   -0.0424362     -0.17177     0.492431    -0.393241      1.37781    -0.925276    -0.126626       1.4545     0.240583    -0.380819       1.5269     0.968563    -0.551121     -1.12608    -0.416169     0.814576     -1.07944      1.23716    -0.414337     0.521134     0.197391     -1.33363    -0.306495      1.17004     0.103245      1.39896     0.876238     -1.16446   -0.0511528     0.127484    -0.519144      0.57622     -1.49417    -0.474767     0.705375    -0.729174     0.485985      0.35432     -0.33761      1.52044     0.313247     0.460075    -0.570344    -0.538054      0.29604     0.653809    0.0788121      1.59933    -0.131153      1.43086     0.106766     0.877232     0.764905   -0.0129089     0.179511     -1.06965    -0.568637     -1.23512    -0.890121       1.3595      -0.1849    0.0828897    -0.598225      0.60301    -0.560232    -0.467709    -0.748334    -0.252338      1.04665      2.32358     -2.49842     0.296367    -0.526832    -0.136992     0.578989      1.08757     -1.96604    -0.139958      0.08118     -1.01099     0.611065    -0.613661    -0.579414     0.344596       2.6363    -0.173242     0.207568     0.472735      0.71967      1.34186     0.179125     -0.36708     0.932582     -1.02655    -0.206999    -0.441996     0.816373     0.543324    -0.262382     0.184629    -0.275199      1.44401    -0.825406     -1.03822    -0.475895   -0.0824227     0.720561      1.38484    -0.574423    -0.014162    -0.513959   -0.0073152    -0.163627     0.757048    -0.211902     -0.43274       0.2236      1.13761      0.13633     0.592446    -0.764339    -0.145007    -0.392165    0.0567401     -1.99266      1.23333     0.566748     -1.44302    -0.782196    -0.555961     0.743459    -0.979362   -0.0133858       2.1429      1.58234     -1.41093    -0.801345     0.102487    -0.552793     0.103212     0.347825    -0.488098     0.183304     0.814706    -0.177251     -1.36225     0.282553    -0.459343    -0.323159     0.448876    0.0159059      0.48127      1.29816     -1.12915    -0.856039     -0.95999     0.807644   -0.0831213      -2.5428     -2.13637     -1.31083     0.208426     -2.30123     0.372235      1.36218      1.31625     0.906196    -0.102893     -1.59715   -0.0858985      1.43216    -0.846508     -0.71566      2.75926     0.752415     -1.43592     -1.57855     -1.04401    0.0535099     -1.09052     0.988264     0.392961    -0.547983    -0.441746
    0.233777    -0.073741     0.626993   -0.0754362     0.691145     0.718886     0.674003      1.54624     0.684987     0.146215    -0.357858      1.07005     0.427992   -0.0794926    -0.939412    -0.946982      -1.4008     0.557195     -1.72369     -1.22906    -0.177598    -0.186933      -2.3365     -0.67986    -0.797766  -0.00743865    -0.395876     0.348343     -0.37711    0.0614483    -0.349383     -1.20115    -0.896641     0.151024     -0.54305       1.6444     0.561499     -1.37362     -1.17246      1.04733      1.22387    0.0544026      1.15026     0.318224     -2.83505    -0.110755    -0.288351     0.335244      -2.9284     0.797107     0.409117     -1.00517      1.58503    -0.363278     0.338151     0.115118     0.555734      1.40129     -1.25936      1.83499     -0.23023     0.478289      0.39069      1.50146    -0.173442     -2.48316    -0.341567    -0.218256      1.24833     0.644429      0.37181     0.664859    -0.331466    -0.290599   0.00650939    -0.698376     -1.42009      -1.8507    -0.912424      1.16118      2.55798      1.02955     0.454716     -1.47375     0.255169     -1.56794     0.911614     0.785497     0.403674    -0.294057     0.285999     -0.65117     -1.26148    -0.151028   0.00260979   -0.0842392      1.10885     -1.20451    -0.612289     -1.38022     -1.76083     0.364226     -1.88052     0.652251     0.710478     -1.60237      2.44119      1.53281    -0.204499    -0.631309     0.978985     0.862523     0.104963    -0.126585       1.5907    -0.440981     0.907529   -0.0734807    -0.219187     0.476649     0.364715     -1.07669    0.0122252      1.47621    -0.868045     0.534949    -0.612166    -0.671387     0.733925    -0.621685     0.509618     0.094588     0.391602     -1.26251     0.146837   -0.0272114    -0.960825    -0.472833    0.0433985    -0.150338     0.923289      1.04717    0.0475181    -0.282174    -0.902478    -0.738442     0.759041    -0.244463   -0.0263075    -0.354181     0.608426     0.926878     0.231483     -1.62879     -0.84475     -1.84947     -1.44401    0.0392593      1.24012    -0.813978     -1.20917      1.07813      1.28728     -2.81805     -1.34526      2.08366   -0.0245527     0.145829      0.52968    -0.542752      0.15337      0.63966     -0.84542     0.758293    -0.492654     0.733442    -0.149866    -0.189801   0.00730891   -0.0228219     0.680201      1.07065    -0.552909      2.56759     -1.05608     -1.25239    -0.829815     0.749718     0.329696    -0.288829     0.345802      1.67196     -1.05336     0.951426    -0.305644      2.12768
   -0.486388    -0.195995      1.27494    -0.398343     0.155015     0.745083    0.0841157      1.54987     -1.58072    -0.292265    -0.560453     0.058366      0.17172     -1.69464     -0.69178       1.3787     0.368789     0.279703    -0.192068      -1.3121    0.0418118    -0.692872     0.140301      1.68889      1.14337     0.203192     0.707439    0.0566072     0.664202     0.260122    -0.317719     0.636508      1.16197     0.795804     -1.19155      1.23706     -1.09281    -0.921889    -0.617434     0.169617    -0.259287    -0.958453      1.45039       0.6527     -1.03613     0.773558    -0.571592   -0.0881054     -1.64531    -0.427004     0.359674     -1.00092     -1.15158     -1.04575    -0.878253      1.53084     0.854918     -1.30565     -2.41179      2.63905     0.359129     0.721027    -0.201652    -0.419973     -0.91938     0.882469     -1.59305    -0.579157     -1.14689     -1.91363    -0.148324     -1.02586    -0.205398    -0.884111     -1.14444     -1.36615      2.20366     -1.41947      1.70813    0.0473838      1.19581    -0.160694     0.129972     -0.76407     0.369204    -0.255006     -2.57493    -0.012287    -0.640245     -1.07464     -2.45079     -2.07342    -0.691348     0.227714     0.388237     0.267797      0.18597      -1.4504     0.547708    -0.409713    -0.646867    -0.622765     -1.29105    -0.542276     0.161475     0.837316    -0.219526     -2.78148     0.746754    -0.109752      1.80311      1.31552     0.934041     -1.35713   -0.0263453   -0.0941648      2.02942    -0.179822     0.552001     0.255166    -0.702893       1.6612    -0.527661      1.29027      1.10229    -0.364153     -1.60902     0.368989     0.438701      0.62659     0.152839      1.44939      2.82877     0.371421    -0.300276      1.98676     -1.10077     0.150733     -2.02819    -0.757754    -0.418403     0.361424    -0.206357     0.564283     0.161751     0.727421    -0.363987    -0.545916      1.78693     -0.79078    -0.317618     0.535205      1.91204     0.785635      1.85198    -0.222064    -0.353641   -0.0576274    -0.146923     0.153352     0.793001   -0.0663774      1.75576       1.2931     0.476852    0.0339792      -2.1383     -1.31963      1.22053     -1.25165     0.724946    -0.704032    -0.234246     -1.03752    -0.705645   -0.0691353    -0.540658    -0.132733   -0.0792809    -0.600381     -2.27453       -1.057      1.22898     -1.92265     0.342365     0.408218     -2.60456    -0.379378     0.360714      1.17553    -0.588597     0.921602      1.12056    -0.501162   -0.0560953      1.28598
   -0.952128     0.315492     0.385654     0.131151    -0.886504     0.204161    -0.899444    -0.370882     0.577274    -0.553781     0.734842    -0.981267     0.451681     -1.25156     -1.03126    -0.287327      1.39025     0.583917     -0.39823    0.0434682      1.42365    -0.126134    -0.345571    -0.255423      1.00777     0.630668    -0.945739      2.06253     0.348506     -0.37124      1.14532    -0.549206     0.574916    -0.787843     0.681413      2.51104     0.393942     0.661878     0.443908    -0.226834    -0.530546     -1.06429   -0.0889654     0.193562     0.952624     0.304569     -1.02136    -0.128589     -1.94726     0.629192     0.820618    0.0374305     0.542805      1.03304     0.493333     -2.90469    -0.325605      1.19701     0.365322     -1.62124     0.805226     0.556728     0.537832    -0.117012     -1.02093    -0.600438      0.11871     -0.63005     -1.05618    -0.127187     -1.27339     0.481777      -1.2498     0.415223   -0.0834434    -0.584028     -1.43647     0.973281     0.761432      0.78518      0.50537     0.690256      1.04092      0.91562     0.318483     -1.90523     0.150418    -0.635023    -0.780847     -1.15802     0.666688     0.911431    -0.399747      1.60219     -2.00232     -2.37027     -1.54292     -1.22062     0.578552      1.49379    -0.846217    -0.363484    0.0308165      1.44813    -0.941808     -0.44877      0.27008     -1.12707     0.940955   -0.0927024     0.970767    0.0782933     0.924871     0.246299     0.190326      2.63184      0.80546      1.04498    -0.928195      1.15803    -0.124308      1.68431      1.26316    -0.529632      1.31141    -0.322349     0.349748     0.432782      1.24537     0.628266     0.753911    0.0119285      1.35921      1.88267     0.365487      1.39388      1.47404      2.22557      1.76083    -0.153062      1.09026      2.00786    -0.678204      1.91713      1.87934      1.62982     0.323378        0.606    -0.103544    -0.538775    -0.594206    -0.367995      1.46567     0.144829    -0.565997     0.397876     -1.21638    -0.412255    -0.459576    -0.279303     -1.05357     0.528139    -0.271991    -0.931264    -0.959984    0.0100579      0.42584    -0.338157    -0.643122      1.14474     -1.52479    -0.520793     -1.03644    -0.310463      1.16227     -1.08895     0.696767     0.380217     -1.20897    -0.191572      1.18532    -0.343969     0.015276     -0.25474     -0.53436     0.749571    -0.576804    -0.264864    -0.170253     -1.19006      1.04581    0.0287193      1.25151     0.519684     -1.41029   -0.0569222
   -0.734647      1.54675     0.124451    -0.545564     -1.00648      2.06843     -2.23536     -1.57279     -1.43994      -1.6025     -1.61263      1.11213    -0.441029    -0.245483      1.75458    0.0453722     -1.57864    -0.154903       1.5281    -0.403161    -0.514165     0.677201     0.288878    -0.121942      1.59513      1.49705      1.86733     -1.88452     0.150512     -0.65423     -0.46268      1.53445      1.21362     0.733602     -1.08416     -1.38683      2.88518    -0.980225    -0.655655     0.763282    -0.251566     0.918322    -0.248355    -0.205581   -0.0955709     -0.70586     -1.17005     -2.09244      0.10701       1.2099     0.367341     0.549465    -0.915546     0.931896    -0.167757     0.919784     -0.46936       1.2184     0.153735     -1.41825      1.23297     0.274225      1.45609     0.731461     -0.84624    -0.770469     -1.67712     0.344935      1.24368      2.04311     0.875394     0.288626       2.2501     -1.52488      1.17686    -0.487467    -0.115728    -0.112497     0.774623      1.25444    -0.425284    -0.103462    -0.793196    -0.732309     -1.62232     0.115983     0.919331     0.620308      1.15031     -1.63445      1.55439    -0.959085    -0.396487      1.19574      2.29068   -0.0634085      1.08521     0.678079    -0.410424     0.158776     -1.62956    -0.864848     0.302813     -1.21925      1.17281     0.781678    -0.714239     0.470213      0.80778     0.164422     0.081734     0.630545    -0.853191    -0.349186      1.34061     -1.87214   -0.0583848    -0.071492     -0.55904    -0.729795     -1.16208     0.348129    -0.631478     0.107367      1.05113   -0.0450244     -1.24149      1.30499   -0.0329143     0.515443     0.263922    -0.411014     0.131026    -0.186908     0.204071    -0.180547     0.060799     0.825683    -0.837283     -1.45402   -0.0500688     0.421571    -0.104111     -1.60018    -0.341185     0.377217    -0.837918    -0.428476     -1.52002     0.137175      -1.0155    -0.138102    -0.433614      1.25752      1.31614     -1.36587      2.40768     0.828216   -0.0699159     0.058623     0.497947      1.21913   -0.0761023      1.10438     -1.10542    -0.342245  -0.00590554      1.58459     0.392796     0.420733    -0.884203      1.09352     -0.24544     0.164135     0.168506      1.71068    -0.726143     0.969968    0.0608989    -0.577777      1.07783     0.394651      1.09843       1.5859    -0.277097    -0.307925      1.95721      1.24666      2.20271     0.802284     0.263904      1.33314   -0.0475656     0.268143     -1.11801     -1.06855
